7287 15
the 0.2641456 -0.14015798 0.47205648 0.27436435 -0.60493165 0.12567563 0.4101504 0.20557687 -0.3766262 0.57853776 -0.29288873 -0.13887392 0.37826812 -0.10844265 0.2961155
and 0.015802436 -0.23321943 0.5517036 0.08372499 -0.5792414 -0.07733023 0.29282337 -0.033355832 -0.6065006 0.5943155 -0.23240826 0.13396035 0.49824032 -0.15017343 0.23037644
i 0.28052384 -0.32183838 0.39982948 -0.014745216 -0.6754127 -0.480918 0.472747 -0.19951566 -0.20671262 0.27033696 -0.34397787 0.45252356 0.5715259 -0.06885924 0.49675894
to 0.09653939 -0.2704953 0.47145915 -0.3443648 -0.7012696 0.3384229 0.5806534 -0.1491606 -0.08622292 0.6772995 -0.07936646 0.33825585 0.5458253 0.092343144 0.40439796
</s> -0.058121227 0.12007974 0.2576575 -0.142039 -0.43737477 -0.16049832 0.58218557 0.26722592 -0.32582024 0.31308076 -0.18059517 0.27650476 0.25914556 0.20505224 0.40621936
was 0.18543479 -0.10388121 0.4397428 -0.04237411 -0.64758646 -0.4677189 0.2694834 0.3596988 -0.31861898 0.19154283 -0.3565935 0.02912909 0.71597487 -0.19308773 0.19170676
a 0.6733581 -0.23111966 0.8500072 -0.09021451 -0.6385536 -0.26973182 0.11874503 0.35203037 -0.39888012 0.22745068 -0.11014517 0.25597417 0.40922162 -0.47005546 0.19877969
in 0.040042177 -0.016050816 0.354155 -0.25250876 -0.69586486 -0.11506373 0.47165668 0.3972448 -0.42833856 0.4006656 -0.37186676 -0.18712065 0.3589163 -0.18121642 0.16691259
you 0.24511647 -0.115935706 0.74257225 -0.018607438 -0.40585715 -0.12745753 0.6813401 -0.17509647 -0.104492806 0.5246514 -0.13790989 0.5820152 0.15612513 0.31198013 0.5622619
that 0.46020296 0.04640755 0.53131723 0.17345692 -0.68412715 -0.17496674 0.5155511 -0.004983696 -0.18705058 0.23855475 -0.16102259 0.1603791 0.5981617 0.18670191 0.29621065
of 0.5721258 0.19027257 0.62688994 0.31063637 -0.6472596 0.2577441 0.2842176 0.12832633 -0.69150937 0.21690375 -0.17686854 0.0228059 0.39146918 -0.13918036 0.15309146
we 0.09952906 -0.07178047 0.4189882 -0.2034022 -0.9414739 0.1634925 0.42003924 -0.18616575 -0.39492437 0.7697006 -0.40695733 0.08607982 0.4993777 0.09045902 0.08465616
they -0.17485474 -0.004606962 0.55549157 0.14621103 -0.7036252 0.10385828 0.24536674 0.012351134 -0.2451383 0.88387764 -0.057238195 0.18868208 0.59909254 0.15449789 0.31308973
it 0.55289626 -0.18252501 0.58535933 0.086951405 -0.7371874 -0.2838817 0.36310184 0.13127756 -0.19382358 0.26875532 -0.42481688 0.4543575 0.23942102 0.14754781 0.18453702
were -0.044485655 0.39235386 0.7183923 0.29968897 -0.61848766 0.14766653 0.10003476 0.09571675 -0.40441865 0.7230856 -0.47445303 -0.13228677 0.80178976 0.15747236 0.14990386
my 0.1210395 -0.54105556 0.5973363 -0.24578063 -0.0983305 -0.2775268 0.51642054 -0.22795206 -0.985592 0.056130692 -0.16893229 0.32590374 1.0774776 -0.35853422 0.44273722
he 0.015098423 -0.61027277 0.45371523 0.19989434 -0.68906623 -0.5238726 0.30851302 0.035687923 -0.3442671 0.48946884 0.34128672 0.55473334 0.53794235 -0.4475308 0.60678375
there 0.30477628 0.1478269 0.609147 -0.0093122525 -0.67855656 -0.09145875 0.23303783 0.13690123 -0.47440276 0.6737764 -0.29653963 -0.14924651 0.546064 0.053462684 0.1697276
had 0.18340698 -0.16987938 0.57269067 -0.11281381 -0.680005 0.21726042 -0.041664124 -0.032964673 -0.60690224 0.38837278 -0.33084932 0.2947556 0.6136214 -0.24965969 0.367942
so -0.26418522 -0.05341565 0.22820723 -0.21555011 -0.4993075 -0.34945175 0.35810095 0.33297285 -0.30639893 0.4265376 -0.2757278 0.39302614 0.47679085 0.10956231 0.28746688
this 0.69147134 -0.34843698 0.55221707 -0.036077887 -0.6666041 -0.23272192 0.61013806 0.094687976 -0.3832811 0.10873097 -0.03304208 -0.03173967 0.40368202 0.043371063 0.39271212
know 0.19024551 0.05984093 0.60113806 0.010455489 -0.5732696 -0.32478213 0.5714401 -0.10128044 -0.20415409 0.51488304 -0.22535694 0.30787134 0.34002465 0.20429087 0.39017457
uh 0.4225586 0.08793931 0.5258204 0.16341504 -0.60317934 0.091341466 0.33139545 0.00566338 -0.35956824 0.3172498 -0.33964065 0.10544002 0.62651986 -0.12599844 0.2979354
for 0.52529466 0.04687723 0.6403077 -0.40004164 -0.9304284 0.13747072 0.15341327 -0.029092228 -0.41113195 0.35277 0.07710011 0.21465184 0.15686266 0.12351367 0.61343
but 0.32818604 0.062848486 0.41380212 0.17251554 -0.687393 -0.18803507 0.40631065 -0.09414115 -0.16772176 0.28617844 -0.22877139 0.4293115 0.6967958 -0.054554403 0.28697586
with 0.10014304 -0.08769772 0.69220185 0.048686367 -0.2483591 0.20123409 0.18300939 -0.04792685 -0.65102154 0.62894785 -0.12132141 0.25392988 0.48451257 -0.24876277 0.5010698
what 0.51883733 0.22898859 0.601361 0.019585041 -0.3557326 -0.314979 0.8794173 -0.12389766 -0.083996 0.34775227 -0.14682144 0.32985193 0.30607173 0.29636827 0.5817624
not 0.54072416 0.27887082 0.49890244 0.04948153 -0.69596046 -0.23329951 0.29538202 0.06695714 0.124100536 0.55519587 0.020231009 0.5818241 0.65097404 0.21692315 0.3370268
on 0.3201906 -0.45085734 0.6205662 0.15117584 -0.33431572 0.12403494 0.5446282 -0.011399031 -0.6828533 0.6897975 -0.6326822 -0.2339095 0.1789647 -0.0066576004 0.38649642
have 0.3198801 -0.027594473 0.5899384 0.027345961 -0.722059 0.12787637 0.443712 -0.16927099 -0.35894167 0.08508257 0.17185068 0.67343086 0.4203041 0.18890055 0.46188554
me 0.05995263 -0.45632792 0.5608886 0.13084891 -0.51911116 -0.45249352 0.46857634 -0.24167818 -0.41908127 0.46498847 0.1798772 0.6399961 0.3780555 -0.056624517 0.669059
is 0.6830403 -0.092408895 0.52335 0.018343687 -0.44171488 -0.5723159 0.9814117 0.32008177 -0.31121925 0.007815666 0.21587653 0.28771123 0.4751749 -0.004041463 0.021025628
people 0.21869974 0.58343405 0.524877 0.17637293 -0.57056665 0.14213611 0.35318923 -0.07386476 -0.3936372 0.83331424 -0.031486385 0.13213393 0.8064337 0.34692824 0.19665186
from 0.00724851 -0.0019907635 0.51997983 -0.15751305 -0.7139056 0.01558571 0.5855076 0.06519035 -0.39060602 0.5043563 -0.13971037 -0.24686769 0.7538574 -0.18564925 0.15873218
or 0.19416648 0.2682725 0.8221109 -0.029029548 -0.78463954 -0.0036560297 0.20809066 -0.043872237 -0.34420753 0.44450003 -0.1117536 0.17364308 0.08478466 0.2661404 0.61578953
all 0.283295 0.113837965 0.50577515 0.21282746 -0.50397086 0.163542 0.34494892 -0.05701916 -0.5226846 0.67327577 -0.34655136 0.16838343 0.5249516 0.018263716 0.13969925
because 0.25686467 0.022570383 0.48215783 0.134205 -0.73640615 -0.15734199 0.2704689 -0.123831056 -0.21641088 0.39803532 -0.17538527 0.5018167 0.8129338 0.08621273 0.19410583
one 0.39285958 -0.063487194 0.6809304 0.023206927 -0.5848453 -0.28136927 0.25000072 0.0023954937 -0.6592529 0.44514585 -0.12072046 -0.13575637 0.39064226 -0.12724607 0.47573972
very 0.4999628 0.0924053 0.39224193 0.007402041 -0.67624867 -0.54186857 0.06945459 0.2500952 -0.31751174 -0.04159535 -0.518126 0.8489604 0.8929975 -0.46550205 -0.046460245
when 0.009609006 -0.20277353 0.45121592 0.11706804 -0.74061745 -0.257452 0.63033897 -0.15578774 -0.21292536 0.33013383 -0.56299186 0.028090023 0.5647891 -0.157354 0.3622138
us -0.20482174 -0.241791 0.55022204 -0.00037446618 -0.84126604 0.05202058 0.41253707 -0.0672456 -0.3593706 0.8510414 -0.05140227 0.17837717 0.35521784 0.23892166 0.24388254
she 0.09973678 -0.40315738 0.25337076 0.012215155 -0.5370413 -0.82806665 0.28648996 -0.26625314 -0.6383078 0.3891966 0.13738525 0.65892917 0.947588 -0.27521032 0.63388157
didnt 0.10939755 -0.055410452 0.4457347 0.07015876 -0.7878613 -0.24448282 0.46656123 -0.31126955 0.0784709 0.5322088 -0.19685762 0.6499657 0.6542524 0.24854831 0.5312229
at 0.45119786 -0.23444557 0.4568992 0.04906124 -0.79478645 -0.3083843 0.3272776 -0.1064361 -0.15564325 0.24818006 -0.55722964 0.13862628 0.52385795 -0.06240286 0.50330305
did 0.28836918 0.15007108 0.5042211 0.0009844985 -0.4970355 0.13322885 0.5482227 -0.30239573 -0.038859233 0.32264763 -0.1303919 0.42474535 0.50225466 0.39445102 0.92281973
out 0.044074487 -0.51005346 0.4463216 0.28602633 -0.6723874 0.053395342 0.34731492 -0.15683693 -0.5298243 0.92583406 -0.28624222 0.09857313 0.6516386 0.13731319 0.1859095
about 0.5409048 0.65314066 0.6414298 -0.26669535 -0.50468373 -0.20711686 0.82388407 -0.43387035 -0.42050716 0.0798159 -0.35838392 -0.08733616 0.37921 0.2685671 0.8524213
as 0.52260226 -0.08315135 0.7577007 0.29098803 -0.58475024 -0.090195775 0.257081 0.19909215 0.051124305 0.05371611 -0.45708442 0.4185169 0.80942357 -0.1439386 0.1945048
them -0.17981541 0.1741178 0.4968211 0.34581864 -0.5508489 0.21243218 0.46284708 -0.26326615 -0.55075467 0.85254145 0.11410461 0.24717514 0.61983216 0.3516833 0.3770264
no 0.5057031 -0.22137178 0.21719491 -0.13531083 -0.7410449 -0.24654631 0.3673972 -0.0594292 -0.11656147 0.4691903 -0.34632498 0.48390067 0.59141433 0.5658228 0.3324737
would 0.2991316 0.016045962 0.6202426 0.027785506 -0.56903523 0.33729815 0.6574128 -0.30262116 -0.115244746 0.6864358 0.002111725 0.52687454 0.31796995 0.16813694 0.4935107
go -0.045109175 -0.49066854 0.5469583 -0.611966 -0.68518597 0.09699873 0.73441464 -0.21368012 0.19643486 0.8908528 -0.27117074 0.34846008 0.49516848 -0.03064242 0.5182406
be 0.1827052 0.0142854005 0.59524834 0.05540788 -0.742525 0.004846681 0.6380358 0.098409325 0.019366622 0.3122835 0.14590272 0.59116286 0.47958973 0.3884567 0.17045385
then -0.245769 -0.32973418 0.51412964 -0.027789269 -0.85703105 -0.03620629 0.39548117 -0.097629204 -0.34970617 0.3449583 -0.47985056 0.0033542677 0.47644746 -0.13912806 0.4383312
like 0.45636314 0.09981591 0.7259822 0.08615543 -0.41658983 -0.2724173 0.2616853 0.08937526 -0.41722775 0.5385683 -0.33264112 0.4958225 0.13424267 -0.018350892 0.30832568
said -0.14497872 -0.44602534 0.2893169 -0.06390828 -0.5258937 -0.7809633 0.75175947 -0.15740685 -0.050082546 0.5844785 0.054018516 0.6289237 0.41289443 -0.101564966 0.75520074
came -0.1355255 -0.40543333 0.33045974 -0.031068483 -0.8841049 -0.047885846 0.5349169 -0.18149415 -0.39377156 0.58230144 -0.3872401 -0.22729528 0.6634296 -0.43562722 0.45977172
time 0.44824204 -0.09404141 0.49205747 0.031237846 -0.9439173 -0.066804245 0.28639266 -0.1979958 -0.3837218 0.16592053 -0.4039496 0.08562096 0.5981186 0.059221707 0.3706307
went -0.11827747 -0.43085974 0.34158614 -0.4570605 -0.91040164 -0.13152896 0.31335306 -0.099561065 -0.31366867 0.67624444 -0.40850103 -0.14183505 0.8359758 -0.26316795 0.39038676
just 0.19379373 -0.26591802 0.51014024 0.3602582 -0.48303622 -0.2780122 0.57273006 -0.13161643 -0.3358456 0.4593866 -0.49323806 0.5013666 0.33873162 0.33748826 0.2379742
dont 0.33513698 -0.03346792 0.62910295 0.020403543 -0.5496772 -0.5688209 0.7351244 -0.13055892 0.03311343 0.36650977 -0.11745262 0.66462284 0.09558162 0.3390533 0.6563293
who 0.19789685 0.28587136 0.65398544 0.24859968 -0.52485913 -0.12223047 0.08257573 0.1129872 -0.55518454 0.38805136 0.5722259 0.017941577 1.0128146 -0.29213753 0.6984106
do 0.47160783 -0.014050126 0.7385387 -0.054137576 -0.4558385 -0.071899876 0.59386826 -0.18232131 0.119956076 0.3660639 -0.03271068 0.84335124 0.29687726 0.42232996 0.7594382
going -0.05582424 -0.05809879 0.53685427 -0.04529467 -0.5677162 -0.15170582 1.1676307 -0.17782813 0.06025105 0.78452784 -0.32984135 0.23063715 0.45532793 0.43490133 0.05534132
up -0.14934172 -0.06782575 0.6352886 0.23598042 -0.7176863 -0.23614912 0.37569612 -0.085388064 -0.5791437 0.8852161 -0.4003967 0.27046442 -0.055876702 -0.20873697 0.2065582
if 0.26406553 -0.23509821 0.4875245 0.19671845 -0.611439 -0.15065469 0.60448325 -0.15450753 -0.045519114 0.65975314 0.26483735 0.73253596 0.37210387 0.41974083 0.50140125
are 0.03166558 0.537243 0.51096815 0.13153687 -0.46622366 -0.15739146 0.901931 -0.091388434 -0.12461046 0.5532141 0.09387942 0.40507486 0.589756 0.23636219 0.18743254
how 0.3399592 0.24240065 0.8277789 -0.09157427 -0.52909046 -0.3090133 0.6324418 -0.24133946 -0.21415462 0.1103515 -0.122476205 0.6474919 0.22194636 0.4207618 0.5590941
some 0.4422602 0.23033327 0.537597 0.18558162 -0.68117356 0.38241282 0.128444 -0.15547687 -0.65160185 0.72053933 0.05771527 0.2529215 0.44506556 0.029999435 0.31599575
him -0.1499261 -0.60069317 0.4562324 0.29464686 -0.7422825 -0.33676806 0.43760803 -0.27180094 -0.3734973 0.6713203 0.40204173 0.5741401 0.4499942 -0.20118375 0.8001513
where 0.3200297 -0.10711825 0.7000675 -0.37787327 -0.46878007 -0.1808887 0.62686837 0.1292953 -0.40304294 0.79129744 -0.1257996 -0.28325325 0.6386142 0.052336093 0.0987729
your 0.4398021 -0.29769862 1.1476437 -0.2388514 0.35922113 0.28579763 1.0118176 -0.37152544 -0.79773325 -0.09391359 -0.10752141 0.82218415 0.3425228 0.08221923 0.6087534
well 0.37620434 -0.0065069417 0.4567208 -0.06873961 -0.8482152 -0.20892261 0.5673035 -0.21185288 -0.15236326 0.25249386 -0.30911827 0.4136116 0.54024124 -0.103563964 0.2929333
remember 0.60817975 -0.23118101 0.46631062 0.014562525 -0.41769695 -0.46811298 0.49889582 -0.21085185 -0.50449055 0.26662254 -0.75740796 0.14341888 0.2296786 -0.12697536 0.6603191
by 0.09520549 -0.099983305 0.6955949 0.5327651 -0.6271105 0.2507239 0.43922317 0.13593808 -0.31110933 0.36465144 -0.19522732 -0.13284333 0.56651163 -0.29584843 0.32709533
back -0.070392564 -0.46135995 0.5547493 -0.066884205 -0.735032 0.064663306 0.8422507 -0.33810273 -0.3955256 0.6673128 -0.26978815 0.05235669 0.3790191 -0.13329488 0.32138705
think 0.4955304 0.2661035 0.7359695 0.10218488 -0.669738 -0.17353292 0.60729456 -0.11549944 -0.16310728 -0.21703732 -0.34740105 0.4645615 0.47843763 0.16690604 0.4674961
got -0.07422349 -0.6851563 0.47874102 0.15658641 -1.0297483 -0.18024336 0.19410594 -0.064075746 -0.6475687 0.24848855 -0.13541713 0.22295965 0.4992057 -0.020629186 0.24792542
could 0.537609 -0.24490504 0.6820931 0.098692216 -0.65628576 0.17479554 0.28376704 -0.21851552 -0.041320167 0.7381411 -0.12064053 0.79722226 0.42508233 0.27122712 0.40395957
jewish 0.41613495 0.57426053 0.54830366 -0.04177825 -0.43200058 -0.008975017 0.21247669 0.06901523 0.02466227 0.8692863 0.016551457 0.25680578 1.0821182 -0.86948836 0.5683124
its 0.7936734 0.15807377 0.7725624 0.008658512 -0.65725803 -0.31704542 0.9334725 0.17595166 -0.14269724 0.026395459 -0.13924085 0.6088512 0.20689818 0.11906234 -0.21521017
which 0.59925145 -0.03746191 0.6482411 -0.016133977 -0.70948756 0.17943726 0.3144485 0.61326075 -0.36410126 0.045318924 -0.17443733 -0.33867154 0.43784386 -0.19962484 0.2768284
our 0.48920757 -0.0723065 0.62137234 -0.061921634 -0.45384982 0.41286147 0.22116415 -0.045234684 -0.7495867 0.5752947 -0.1811936 0.12574403 0.6328024 -0.18152449 0.16975667
get -0.003963394 -0.67000586 0.62892306 -0.08014238 -1.0068328 0.35202637 0.2843647 -0.29918182 -0.37296936 0.691166 -0.18631627 0.6902066 0.2704781 0.19414726 0.25013787
took -0.3093256 -0.5363817 0.78664905 -0.029230103 -0.760067 -0.19826376 0.1013973 0.02550497 -0.6403667 0.8795499 -0.07583992 0.049195606 0.5097091 -0.16075943 0.30256024
her -0.06861082 -0.816832 0.30837315 -0.07634916 -0.16777104 -0.69879925 0.4033678 -0.23151906 -0.91430384 0.4044236 0.09225992 0.6041615 1.0442017 -0.09112547 0.634376
camp 0.07096633 0.08119077 0.78093636 0.025282955 -1.2335026 -0.34846783 0.21485226 0.6280352 -0.11145346 0.4770311 0.081126235 -0.807185 0.79946756 0.55854946 0.34755158
an 0.34759438 -0.36404318 0.61763513 0.038404763 -0.48349872 -0.19550484 0.13189678 0.8689683 -0.24724841 -0.20129925 -0.044280916 0.10868499 0.40586403 -0.25600415 0.48322225
um 0.5335049 -0.062528074 0.48434404 0.13679957 -0.50800717 0.21945529 0.40976763 0.17358017 -0.3166025 0.09015214 -0.3945595 0.14628309 0.525092 -0.37645942 0.42489588
see 0.282403 -0.20057383 0.5772693 0.2652663 -0.31215057 -0.22682038 0.75062406 -0.22692245 -0.34641534 0.58747387 -0.3098572 0.29620704 0.41047534 0.32984823 0.43206447
other 0.31127325 0.3798928 0.868316 0.08931258 -0.1821145 0.21278259 0.33439568 -0.12183315 -0.6463638 0.5856611 -0.033556607 -0.015738217 0.54844445 0.08445206 0.6434332
day 0.44901875 -0.27833208 0.4400297 -0.121363744 -1.2437638 -0.36477822 0.40058365 -0.28355557 -0.5767746 0.64397645 -0.46898112 -0.16990672 0.017400837 0.04320689 0.45048895
after -0.08272265 -0.08833819 0.34239373 0.028269602 -1.1341234 -0.1535605 0.5802066 -0.2441008 -0.52378505 0.10154847 -0.52220666 -0.3003394 0.50509685 -0.06820079 0.40068692
father 0.05964505 -0.5679053 0.56786144 -0.41687575 -0.3440718 -0.19453703 0.36806402 -0.31638172 -0.683077 0.16697672 -0.25674048 0.47222173 1.211277 -0.4364902 0.48828426
now 0.054655194 -0.034578428 0.6632794 -0.07067491 -0.54213655 -0.35834143 1.0210122 -0.05104727 -0.19993144 0.13526827 -0.013547532 0.4179681 0.42215934 -0.09944621 0.10734294
little 0.49143094 -0.23657879 0.9305409 -0.25905326 -0.36281937 -0.0835316 0.11481252 0.014902328 -0.84848917 0.5886614 -0.40268803 0.652856 0.32117143 -0.49142918 -0.046640668
his -0.0015659801 -0.7717782 0.659673 0.33302915 -0.23679607 -0.16901566 0.43911934 0.071237735 -0.9618704 0.13461746 0.40081966 0.38392052 0.6556921 -0.6217179 0.55376834
only 0.37481326 0.124357335 0.4992975 0.004716353 -0.7964998 -0.1372814 0.15602255 -0.1466259 -0.4454214 0.17930958 -0.1992495 0.18240236 0.5679105 0.08994049 0.5229015
war -0.91605556 0.38215286 -0.13956992 0.11901505 -1.0347313 -0.12159024 1.1258873 0.69473296 -0.31012696 -0.44257528 -0.5867376 0.026909694 0.68392855 -0.1249716 0.09656934
say 0.27597642 0.15139805 0.74475545 -0.1610977 -0.37599006 -0.5118121 0.7371431 -0.13570529 0.038582027 0.29250166 -0.15099862 0.6425926 0.24153697 0.056806535 0.61998683
been 0.4007186 0.51347 0.3913718 0.38195693 -1.0958469 -0.25967196 0.38232103 0.026346901 -0.60350525 -0.008745151 0.15437517 -0.057700746 0.5546897 0.09855518 0.3862704
can 0.57577723 -0.1377618 0.8668271 -0.2095787 -0.33164063 -0.09485415 0.87936246 -0.059546046 -0.13209854 0.24607924 0.056874387 0.75983787 0.050772633 0.4961771 0.53827465
mother 0.11063809 -0.58415884 0.42371172 -0.3655761 -0.1488733 -0.3370357 0.43325293 -0.449635 -0.93107384 0.17944403 -0.343241 0.50258213 1.1447933 -0.1851351 0.53911614
something 0.59930605 -0.0919248 0.569354 0.23210125 -0.6180971 -0.14694327 0.6533868 -0.11417779 -0.20208143 0.41953427 -0.091957524 0.61878824 0.08542603 0.28674585 0.3992062
come 0.047034245 -0.2758887 0.37090138 -0.25627148 -0.6963047 -0.049905766 0.9241542 -0.45296952 -0.2165212 0.7668889 -0.05993294 0.3420077 0.3042348 -0.0074744606 0.4838342
will 0.115477845 -0.24333404 0.45849723 -0.25687623 -0.5744138 -0.27412 1.1178689 0.08804191 0.025572008 0.3684863 0.210537 0.6287613 0.33930284 0.42500922 0.18900196
thats 0.3642473 0.012355392 0.5085197 -0.056738507 -0.61716086 -0.27883086 0.8093182 0.0830469 -0.3232387 0.19163361 -0.043258224 0.43277228 0.3231348 0.2303278 0.008146875
two -0.3461404 0.21281154 1.0561106 -0.403634 -0.64991456 -0.022164814 0.21239235 -0.23701604 -1.2711108 0.28862903 -0.35662314 -0.24862231 0.31484377 -0.2849264 0.54149693
german -0.08274677 0.056563705 0.7712774 0.7632252 -0.8727593 0.0494478 0.3453941 0.42390206 0.20578866 0.630659 0.16817169 0.09843423 0.4232425 -0.64882714 0.4432726
im -0.13154036 0.026603416 0.1942052 -0.26717243 -0.21596327 -0.82334685 1.1597016 0.35944563 0.1665119 0.07147868 -0.23749438 0.84750247 0.49088067 0.19153124 0.3338105
into 0.35100684 -0.32519108 0.56096315 0.013991996 -0.59294206 0.15683931 0.37258396 0.281907 -0.32449108 0.9150617 -0.36070535 -0.22029036 0.75102055 0.22912213 -0.05265569
first 0.11938907 -0.10766929 0.34543774 0.12554228 -0.95341414 -0.17598438 0.46613276 -0.13041335 -0.36069763 0.062275913 -0.44103333 -0.1532543 0.62093943 -0.33663872 0.5765023
jews 0.14875154 0.7933199 0.4928623 0.36447874 -0.57547075 0.30809343 0.58572865 0.294425 0.24633902 0.87190086 0.028606009 0.20075281 1.0069673 -0.2682038 0.04815044
work 0.095794596 -0.14362298 0.8578761 -0.55224085 -0.94655335 0.071729995 -0.017047876 0.21232417 0.10446124 0.9341592 -0.024619276 0.22313619 0.51983994 0.4453895 0.4392396
never 0.29965302 -0.26544267 0.04386861 0.22411105 -0.67971694 -0.33602488 0.5973429 -0.23476946 -0.24655299 0.029908031 -0.18742953 0.52446306 0.82901984 0.31528172 0.60990995
way 0.402342 -0.16514735 0.738099 0.22293001 -0.4444878 0.18366852 0.6188904 0.034502592 -0.15478761 0.3279727 -0.3154249 0.4433872 0.5014614 0.107846625 0.100921705
couldnt 0.005517058 -0.35183972 0.44533035 0.016197681 -0.8307976 -0.07669853 0.1460451 -0.3729334 -0.0045079174 0.66219527 -0.5097789 0.91997325 0.6300568 0.37793198 0.48955947
knew 0.35250664 0.11209838 0.35657454 0.19594657 -0.7400022 -0.19087537 0.57320666 -0.21824081 -0.15819533 0.5318265 0.042366628 0.019385993 1.000428 0.19237146 0.47136268
over -0.04551776 -0.25289077 0.53173757 0.38229865 -0.7931738 0.027326217 0.53545815 -0.009353941 -0.66174614 0.7621265 -0.052089386 0.10888945 0.28536782 -0.19914354 -0.042460877
their 0.002505692 0.29097375 0.60556006 0.5241096 -0.084632605 0.8670981 0.17693019 0.034671832 -0.7620928 0.45805305 0.058737386 0.69421995 0.7455449 0.13123755 0.33152974
any 0.70960623 0.16391261 0.39778587 0.0457778 -0.55924237 0.44707912 0.1725582 -0.18132074 -0.013764893 0.46200237 -0.2564814 0.6127249 0.60715324 0.58901095 0.8085206
told 0.09759085 -0.27066267 0.45350045 0.018014686 -0.7418922 -0.32492504 0.64116263 -0.23920158 -0.29170203 0.5778043 0.38082337 0.18760534 0.64635724 -0.06261748 0.67001235
take -0.23214978 -0.4694103 0.7845006 -0.38764435 -0.5420613 0.15317257 0.45281085 -0.027585095 -0.26195306 0.7404125 0.113044135 0.67532474 0.2901497 0.3239159 0.42605114
here 0.083013415 -0.2893169 0.5734402 -0.12839898 -0.51264256 -0.31346256 0.94490945 -0.065457776 -0.58208513 0.4558723 0.25943494 0.28008375 0.38586605 -0.0055249715 0.099100135
really 0.5906572 0.11138566 0.5753499 0.2726123 -0.693916 -0.29898888 0.37121198 -0.0607982 -0.1557567 0.04088276 -0.40042004 0.756438 0.6004704 0.110413425 0.19010587
away -0.39009425 -0.45339248 0.70878464 0.10511812 -0.5181419 -0.046937812 0.53939277 -0.17710936 -0.31209743 1.0098568 -0.16796868 0.19330862 0.9939701 0.13239837 0.14070173
family 0.3857945 0.16451032 0.7500612 -0.61927205 -0.22795108 0.08554346 0.725178 -0.27030715 -0.97504383 -0.045276504 -0.051153623 0.2913816 1.2857662 -0.33263615 0.09001211
want 0.098227136 -0.35730228 0.60436344 -0.3474236 -0.53717977 -0.18464188 0.8574605 -0.37636566 0.07172552 0.5157441 0.14384489 0.9435134 0.43861493 0.25636038 0.697051
used 0.09538454 0.011182265 0.41241157 -0.20090866 -0.6041399 0.10735525 0.17810264 -0.2614931 -0.607464 1.1327004 -0.2891038 0.55117947 0.16322608 -0.31703675 0.37510136
these 0.098387815 0.6401394 0.6668577 0.39101028 -0.3970907 0.48898438 0.26697063 0.035923272 -0.51337254 0.63510793 -0.22162846 0.025311138 0.39048272 0.2500877 0.52759534
more 0.49209952 0.4348891 0.90217817 -0.14472964 -0.53190404 -0.09860271 0.12902482 0.03438371 -0.24387982 0.15352573 -0.43067107 0.6314177 0.6861601 0.32586122 0.22164243
yes 0.23302144 0.05492524 0.3011154 -0.1891174 -0.6491029 -0.62707114 0.6023924 0.019295735 -0.16102472 0.2397753 -0.04319879 0.3019755 0.49914184 -0.19222385 0.56634474
right 0.10920516 -0.41843784 0.91850024 0.26051193 -0.47311696 -0.37230024 0.71935594 0.12959926 -0.18393134 0.54131955 -0.17676198 0.18656003 0.30144113 0.0113873845 0.099220216
even 0.40615395 0.102649085 0.5873333 0.052447148 -0.6560948 -0.22449403 0.38845173 -0.18416075 -0.13033465 0.2491466 -0.40153635 0.5490064 0.6834453 0.14352453 0.24534066
things 0.72947925 0.27635965 0.6107699 0.2022615 -0.5793813 0.4188046 0.37685123 -0.28138873 -0.45719168 0.3784037 -0.48786822 0.6541623 0.32986143 0.23802353 0.3073647
germans -0.22903752 0.19665332 0.73747414 0.5982591 -0.9699702 0.4212532 0.5988374 0.021040725 0.09260832 0.84009427 -0.18554768 0.09195385 0.6447982 -0.2238132 -0.054016102
also -0.11247023 0.2586542 0.038621563 -0.27589983 -0.36092997 -0.20581163 0.31900224 0.669447 -0.34632668 0.20048192 -0.041182876 0.20842193 0.79416955 -0.25676417 0.47319505
before 0.00719789 0.051006652 0.47454223 0.056928955 -0.98835534 -0.20892312 0.67631614 -0.073263794 -0.31490055 -0.032950956 -0.5591406 -0.23436715 0.531413 -0.28978688 0.35273236
thing 0.6854503 -0.11672824 0.51761925 0.3931861 -0.70015466 -0.19407111 0.40169123 -0.04106133 -0.3117983 0.1737135 -0.4611161 0.3432615 0.39245623 0.19181603 0.29761022
happened 0.42921212 0.14915015 0.45733866 0.17784856 -0.7260649 -0.45720428 0.9949265 -0.31889302 -0.28139952 0.18193062 -0.1331596 0.02570426 0.5418824 0.118830405 0.42619976
tell 0.44366917 -0.1157677 0.87340707 -0.2572581 -0.4137302 -0.46345127 1.3354429 -0.3677658 -0.13070644 0.2919237 0.32674488 0.52181876 0.29743353 0.18857388 0.66221046
saw 0.22502665 -0.2844271 0.41249242 0.78323853 -0.37290797 -0.42813057 0.61367655 -0.20519806 -0.565378 0.6452791 -0.57050604 -0.14151846 0.5953153 0.053690445 0.490999
many 0.033482704 0.75053954 0.4316176 0.25128925 -0.87532806 0.07307183 0.4977061 -0.40679684 -0.7589202 0.3670082 -0.07786603 -0.023208618 0.6350295 0.2104825 0.3648525
home 0.15860318 -0.27770406 0.24256222 -0.6402152 -0.79949856 -0.2101664 0.3930542 -0.65262747 -0.50086665 0.769992 -0.53177565 0.48092788 0.6550826 -0.46779123 0.55344063
years -0.30101582 0.6095462 0.9279854 -0.37436673 -0.8819062 -0.4876191 0.44483873 -0.30093086 -0.8878634 -0.55816287 -0.32615122 0.138172 0.57997733 -0.2904586 0.77162755
left -0.1543734 -0.47075593 0.6500194 -0.09012107 -0.6550354 -0.14176261 0.5241937 -0.0776963 -0.40596256 0.44446522 -0.29001692 -0.21646044 1.0255362 0.031543326 0.24962214
children -0.42040706 0.5486635 0.6685 -0.42547804 -0.24928744 -0.15800734 0.34769374 -0.31559408 -0.8339367 0.39489254 -0.060762405 0.36928806 0.942646 -0.057949703 0.5305959
put 0.13027965 -0.7953051 0.88655174 0.09898981 -0.40416878 0.13899761 0.24484809 0.41561565 -0.9126438 0.81189024 -0.006651913 -0.11195717 0.1567428 0.3989671 0.21665232
through 0.2827356 -0.29610723 0.45066768 0.33072045 -0.46772575 0.15275015 0.61734 -0.14679414 -0.4372637 0.6508427 -0.3894067 -0.14240965 0.69264966 0.15817149 0.300304
maybe 0.16432214 0.22325005 0.93176 -0.32555488 -0.89696944 -0.37451097 0.6336389 -0.2983471 -0.33283013 0.24371043 -0.037340526 0.4415224 0.27562967 0.32394397 0.2136234
those 0.13366133 0.47649136 0.60199696 0.313981 -0.6582499 0.546863 0.056064583 -0.12843215 -0.68695074 0.5671083 -0.34720293 0.007742628 0.43995136 0.31495416 0.46198848
much 0.4521998 0.101667926 0.6238002 -0.032451294 -0.68479973 -0.05691406 0.15428585 -0.1044178 -0.23865502 -0.08795006 -0.34961843 1.1511314 0.81148356 0.16165979 0.20476444
still 0.23906144 0.0029054563 0.58214587 -0.045802414 -0.78037816 -0.21058585 0.5525915 -0.09154719 -0.39386454 0.23175831 -0.30545878 0.43637902 0.6279428 -0.08324428 -0.12144262
place 0.47988316 -0.13318005 0.5661158 -0.46559986 -0.70214856 -0.12966663 0.5959229 0.10644309 -0.3783341 0.9523872 -0.11201138 -0.20282611 0.6760929 0.008049731 -0.10198016
too 0.14565282 0.07814201 0.48557594 -0.0042019025 -0.7736997 -0.28906843 0.22735552 -0.14497134 -0.11394227 0.36240274 -0.30062687 0.67196554 0.9064479 0.029445145 0.16642387
always 0.478029 0.11099778 0.42665252 0.20227975 -0.47359312 -0.09791556 0.49941295 -0.35564694 -0.32552293 0.38639778 -0.39611346 0.68779814 0.5480443 -0.12628417 0.38238356
school -0.048209768 0.53708124 0.6543759 -0.61685467 -1.0185823 0.1172454 -0.049724754 -0.14781241 0.10240995 -0.06282918 -1.058423 0.5299513 0.706341 -1.216647 1.2349144
mean 0.466985 0.13216719 0.59029055 0.26091495 -0.577486 -0.21127017 0.38822553 0.04295809 -0.16171806 0.11384122 -0.10887779 0.70122856 0.4659167 0.35733482 0.38117313
life 0.61491424 0.09801719 0.82876754 -0.3000843 -0.45242468 0.13884588 0.7634802 -0.08122024 -0.7529943 -0.35196388 -0.15838552 1.0294747 0.7546766 -0.096853994 -0.31364718
again 0.064202234 -0.33265623 0.49215686 0.16536912 -0.7336428 -0.10174136 0.69619083 -0.2542763 -0.25960976 0.29907367 -0.29497674 0.007863784 0.4836241 0.38407457 0.55697155
die -1.2183946 -0.020790152 -0.32605538 -0.37027624 0.030334577 -0.49849284 1.3197235 1.8062366 -0.78912324 0.3960598 -0.42869917 0.9248835 0.61200714 1.0868753 1.0319716
man -0.2731409 -0.17305763 0.21262327 0.0050502676 -0.38324103 -1.0687025 0.20727019 0.9584661 -0.29902288 0.32409173 0.24806122 0.36709657 0.4487389 -0.36765692 0.6513907
course 0.35181653 0.13647696 0.37987548 0.2876646 -0.7050829 0.12454367 0.092707336 -0.03350756 -0.3161442 0.15354855 -0.47195917 0.16323198 0.7424253 -0.1250479 0.5619386
germany -0.032029733 -0.09073552 0.6318967 -0.21582109 -1.0170516 0.5707853 0.93876565 0.15992054 0.25137958 0.0348675 -0.2703 0.025581466 1.1085398 -0.26838395 -0.060759302
ghetto 0.5501118 0.14850011 0.3891973 -0.4734952 -1.0047928 -0.011029143 0.48213524 0.18437628 -0.2820513 0.8593615 -0.22818694 -0.46193594 0.9727968 0.22936054 -0.047968715
being 0.4739124 0.39877453 0.59448594 0.6411635 -0.54613495 -0.11237287 0.12676042 0.11800793 -0.23622002 0.20612997 -0.33036146 0.23572767 1.0486131 0.31437823 0.24903542
name 0.16614807 -0.41339207 0.9487653 -0.30079094 0.0057272697 -0.38660312 1.5123911 0.42120337 -0.62038547 -0.07930471 0.80431414 -0.10154661 0.31255972 -0.8371357 0.65657204
good 0.36812687 -0.008033601 0.5767108 -0.04942114 -0.8477947 -0.25854823 0.20227087 0.034050204 -0.2022957 0.12822005 0.07691164 0.93833613 0.5368179 -0.5101471 0.27954563
every 0.62523794 -0.1123042 0.43818438 -0.08006462 -1.1688973 -0.27138764 0.23100065 -0.1307693 -0.5538041 0.75978464 -0.4410844 -0.01778245 -0.11423605 -0.09423467 0.3692502
another 0.47913042 -0.22796962 0.8374346 -0.24324754 -0.7583677 -0.3848721 0.43054822 0.13086323 -0.44623625 0.5473503 0.084579915 -0.25541148 0.5709538 -0.013116194 0.22248532
town 0.42150286 0.27500507 0.71330124 -0.4588943 -0.48649192 -0.10020434 0.78664094 0.3289288 -0.3945577 0.8352716 -0.34288016 -0.5515855 0.94158363 -0.80526143 -0.15106764
why 0.029070958 0.11233751 0.51618266 0.043761086 -0.42354977 -0.4609357 0.9012349 -0.3277046 0.040703103 0.44199777 0.046677087 0.82040256 0.41029128 0.35686132 0.75637174
everything 0.31097114 -0.42606544 0.44937083 0.14234011 -0.6549966 0.31104127 0.34192988 0.108985 -0.43349 0.71279484 -0.29660094 0.7157064 0.31282148 -0.0019355745 -0.1624385
wanted -0.08071588 -0.43612978 0.32071877 -0.14943163 -0.6797392 0.18790385 0.31266397 -0.28808212 -0.030554822 0.6067392 -0.09066711 0.8988988 0.7660389 0.042163033 0.61586034
already -0.3146349 0.05920415 0.45661423 0.13616917 -1.1181438 -0.20731375 0.45719555 -0.11345642 -0.3093329 0.22644645 -0.5529015 0.063247725 0.6682347 -0.17660002 0.102420874
has 0.7986621 0.49020252 0.27310485 0.09773832 -0.8143536 -0.516217 0.5822216 0.1955058 -0.60795426 0.25387734 0.80046934 0.28893825 0.33584508 -0.12776604 0.43644547
down 0.08785926 -0.6680518 0.41366047 0.4860932 -0.3311124 -0.13795127 0.68052596 -0.09116053 -0.92837524 0.94496316 -0.80165917 0.061600134 -0.069597125 0.045211975 0.29345733
started -0.337982 -0.037248958 0.38039473 0.3821287 -0.7803997 0.05126684 0.58830696 -0.33892077 -0.32313088 0.61783963 -0.7869688 0.2078544 0.47877154 -0.2399419 0.19272617
wasnt 0.47887832 -0.2452053 0.49050862 0.19301464 -0.83420646 -0.3857885 0.10078457 0.17103522 0.07741374 0.39267787 -0.3653103 0.5880408 0.93064463 0.009464523 0.07604308
thought 0.31162328 -0.1491661 0.41281697 0.21711305 -0.6981131 -0.22723383 0.69705945 -0.2762227 -0.31898952 0.2524144 -0.12663385 0.6731871 0.7784535 0.3280952 0.04645982
anything 0.57486385 -0.10783201 0.23706706 0.12350222 -0.5451064 0.13063304 0.23569791 -0.14930707 -0.019442417 0.6521456 -0.31210053 0.9142048 0.47669852 0.6140143 0.6709649
make 0.45190904 -0.23863249 0.76755476 -0.18696637 -0.47294366 0.12003486 0.45685214 0.1776689 -0.06899192 0.42628202 -0.004090266 0.87685174 0.19040994 0.15333298 0.29714394
everybody 0.23831505 -0.18670407 0.28900743 0.262475 -0.5753666 -0.22688031 0.45373663 -0.13404185 -0.4082831 1.0152153 -0.28652602 0.3053138 0.62506795 -0.001837466 0.05518094
made 0.46364552 -0.18295139 0.5996834 -0.009034835 -0.62493455 0.09506451 0.17739399 0.16377844 -0.5858589 0.4368758 -0.013237032 0.39296472 0.25791222 -0.12363846 0.21170652
sister -0.28417432 -0.5534615 0.6126598 -0.60549366 -0.35224843 -0.6780013 0.6167477 -0.34522855 -1.2984627 0.043131392 -0.05605987 0.13424599 1.2286823 -0.026129182 0.3999517
night 0.53066444 -0.14265998 0.20034932 -0.025563568 -1.1825954 -0.580333 0.53928787 -0.39518604 -0.7956264 1.1301472 -1.0202004 -0.17489272 -0.0655085 -0.09067447 0.2158995
three -0.33582973 0.5038512 1.0022706 -0.59192014 -0.8960164 -0.20393023 0.12722164 -0.31268936 -1.2614303 0.341651 -0.5568101 -0.3332266 0.26251552 -0.1662436 0.6168389
days -0.16313441 0.15935749 0.7119966 -0.27877975 -1.2199589 -0.013550699 0.2797983 -0.45920062 -0.9460155 0.27459717 -0.9634118 -0.18647127 0.26318198 0.16448505 0.36892763
lot 0.2223261 0.42464274 0.39050585 0.13714583 -0.7864743 0.14486222 0.09952889 -0.037633557 -0.48512012 0.6000585 -0.14341514 0.49624476 0.7435597 -0.2960783 0.023266222
nothing 0.6226467 -0.19925022 0.32529372 0.032743704 -0.7649356 -0.0864506 0.40480947 -0.11742308 -0.29961893 0.6714746 -0.35373265 0.79389375 0.32019567 0.5672388 0.024556741
food 0.44125375 -0.16175987 0.37815866 -0.29763123 -1.2964915 0.5290808 -0.35181645 -0.041969582 -0.80978566 0.9185735 -0.27439475 0.8147154 0.35561302 0.52177143 -0.0680985
few 0.05544266 0.26586026 0.92731917 -0.108637854 -1.1252083 0.12753737 0.2586716 -0.36466062 -0.70696384 0.23235637 -0.31659687 -0.18435757 0.51501864 -0.15862806 0.37436187
give 0.19325094 -0.5610151 0.8394706 -0.30028102 -0.7051906 0.21193661 0.3693797 -0.152849 -0.6438295 0.57017165 0.60057366 0.8642392 -0.08821411 0.075747564 0.6614946
later 0.0305272 -0.19093728 0.7964964 0.079013504 -1.0418575 -0.27810636 0.5250739 -0.15512653 -0.5316913 0.052082196 -0.33682406 -0.44678524 0.509037 -0.044042416 0.45702606
brother -0.43160424 -0.4463885 0.7732334 -0.5999729 -0.34364414 -0.33806145 0.58559483 -0.37746534 -1.155113 0.097308494 -0.11105948 0.070758276 1.358439 -0.2793878 0.46732092
parents 0.099418394 0.023473367 0.49891928 -0.3270812 -0.19146077 0.24042416 0.6986853 -0.5406003 -0.7059522 -0.03694329 -0.21157265 0.4210737 1.4984545 -0.30436376 0.46715108
house 0.6383502 -0.33617994 0.44695196 -0.39689645 -0.29133108 -0.16554189 0.5484366 -0.22498694 -0.93270046 1.2629728 -0.42309728 0.0950943 0.6232497 -0.5918851 0.056145515
big 0.5216955 -0.082975306 0.81912047 0.0494708 -0.5745019 -0.08844723 0.09443801 0.522734 -0.5496515 0.84354144 -0.42905825 -0.022240913 0.30528077 -0.5427229 -0.15356784
lived 0.43129736 0.22223823 0.665639 -0.7088276 -0.5084535 -0.22857095 0.54759073 0.13511752 -0.8466008 0.46385965 -0.44906363 -0.3026407 1.3098835 -0.64112693 -0.24268708
yeah 0.13078292 -0.048662376 0.3689208 -0.402964 -0.6238543 -0.6210583 0.7977292 0.18090184 -0.23877053 0.29062414 -0.32856408 0.06776984 0.28869417 -0.18384303 0.2430499
auschwitz -0.39689875 0.11197324 0.39327615 -0.32195526 -0.8688613 -0.84586227 0.61804867 0.85506874 -0.3272753 -0.06453485 -0.03652762 -0.69155794 0.7388906 0.9461031 0.50900227
kind 0.46508652 0.3577288 0.41842422 0.34523198 -0.43715128 0.1505718 0.028755795 0.47054386 -0.23638041 0.22586739 -0.3020233 0.39128438 0.43328667 0.11435162 0.4614269
around 0.15306011 -0.1352956 0.5450012 0.3571173 -0.24591416 -0.060003582 0.52687764 -0.001061998 -0.41115344 1.1824311 -0.7345804 0.13851652 0.29905164 -0.07539405 0.18890402
same 0.55225307 0.060423017 0.5663389 0.018256703 -0.6956321 -0.28334647 0.33966407 -0.10789336 -0.5041795 0.33452123 -0.12462768 -0.111154094 0.6159337 -0.13196419 0.48205078
gave 0.14575815 -0.69172144 0.56454897 0.08785467 -1.0595366 0.18997617 -0.036555834 -0.06168241 -0.8145679 0.5380481 0.40637204 0.6119605 0.033190392 -0.29611844 0.6107462
heard 0.25140768 0.3571414 -0.02015563 0.7803818 -0.95166206 -0.44529164 1.1759211 -0.4441965 -0.44884133 0.7142527 -0.26766512 -0.39896575 0.21582717 -0.06718058 0.5241637
should 0.29420128 -0.08499597 0.49537864 -0.082516335 -0.6010898 -0.023180103 0.850844 -0.30053666 -0.22195941 0.4449218 0.2846771 1.0158823 0.27597475 0.2058239 0.35798612
says -0.27809665 -0.46758932 0.5401433 0.031178026 -0.46063104 -0.99545014 1.0576206 -0.046592318 -0.2200155 0.8560752 0.43879288 0.87633467 -0.09463521 -0.35655266 0.5641751
oh 0.12980132 -0.05483362 0.24696207 -0.20445243 -0.59001994 -0.8382906 1.0276548 0.06866625 -0.018870868 0.27384827 -0.13763174 0.48945647 0.202074 -0.26213866 0.43790305
young -0.15288994 0.5637729 0.93263966 0.26203743 -0.4127068 -0.7461376 -0.14238796 -0.0032366675 -0.34291855 0.3744769 -0.11334582 0.40456903 1.0578926 -0.29778945 0.73390156
whole 0.7331744 -0.014410071 0.67898333 0.072994046 -0.7929955 -0.18879774 0.58333904 -0.003182443 -0.52660674 0.27840355 -0.41314173 -0.09483681 0.37542552 -0.25104055 0.000100088124
somebody 0.45385352 -0.33812538 0.44715172 0.28530687 -0.54687154 -0.3332785 0.6824089 -0.30097464 -0.51653695 0.8766923 0.35251063 0.30931288 0.31487864 0.11503124 0.57772195
called 0.22504583 -0.1908018 0.75131595 -0.012518908 -0.70109046 -0.19708587 0.4393026 0.71430194 -0.03704515 0.58948606 -0.06976658 -0.58128023 0.26120928 -0.6644682 0.5658162
look 0.32480165 -0.35098067 0.85974365 0.13068569 -0.16919199 -0.5652013 0.63310397 0.030563412 -0.19198011 0.6885637 0.09095549 0.6626994 0.35697123 0.0450724 0.37253776
together -0.019025434 0.19148952 0.6937018 -0.45050296 -0.46480304 0.1170786 0.25486284 -0.33502936 -0.710944 0.67340213 -0.24769507 0.19664514 0.6866479 -0.011184816 0.45238355
whatever 0.24325961 -0.2295355 0.63646024 0.07198711 -0.5876546 0.4399252 0.16426507 0.07533356 -0.432692 0.880599 -0.12563056 0.65993834 0.09475778 0.19301537 0.22969063
polish -0.21890979 0.83469224 0.7599915 0.20071013 -0.8412897 0.060390886 0.5093413 0.13929178 0.08747312 0.86859787 0.41026828 0.13454871 0.7400428 -0.95061255 0.37623355
than 0.17225568 0.70360625 1.2202381 -0.50270176 -0.54602724 -0.34651402 -0.012818917 0.30882806 -0.18886068 -0.22948684 -0.33998612 0.6760468 0.904239 0.3768406 0.22099788
youre -0.20919564 0.1433807 1.0083634 0.091301575 -0.2810194 -0.7710411 0.9731297 -0.11775671 0.10521002 0.5657799 -0.38313687 0.9956812 0.13196345 0.37542626 0.2554543
old -0.31615335 0.25806326 1.0915269 -0.2570178 -0.35568064 -0.8826315 0.29590368 -0.058403052 -0.74461263 0.054262094 -0.36695865 0.24373314 0.80029756 -0.52110666 0.47398522
train -0.10074134 -0.96161985 0.9658152 -0.22289746 -0.58275443 0.015514931 0.6438071 0.11768006 -0.06666434 0.72655416 -1.0052347 -0.5161836 0.45441824 0.35127932 0.55715305
found 0.48686457 -0.5120923 0.112181336 0.20629844 -0.98515266 -0.12292661 0.36781403 -0.061345685 -0.8883661 0.492028 0.32642573 -0.1409348 0.83809656 -0.16355136 0.21558216
believe 0.44548178 0.1611762 0.21137379 0.33996904 -0.9876551 -0.48594028 0.96051276 -0.05479418 0.1513285 0.009673422 -0.1501507 0.62050277 0.5939716 0.39237928 0.20023018
felt 0.58038104 -0.05383593 0.47411993 0.22633708 -0.5776494 -0.08790294 0.5396107 -0.039099738 -0.020704161 -0.13262719 -0.4931953 1.098836 0.8785787 -0.014727008 0.040805776
long 0.32775036 -0.28195906 1.1879137 0.042974018 -0.81537884 -0.23390016 0.23246588 -0.01357433 -0.5083122 0.047664016 -0.630725 0.34367862 0.011184752 0.14353552 0.19757894
und -0.9705316 -0.3052756 -0.9862697 -0.36712945 -0.45531404 -0.22492807 1.6429448 3.1386168 -1.5126187 0.4447101 -0.9010422 0.9660455 0.83418196 0.4769659 1.2559547
das -0.9804924 0.6740526 -0.97913444 -0.5292367 -1.0705783 0.063174814 1.9121081 2.8943489 -1.3190758 0.1472578 -0.7100266 0.6738319 0.083359286 0.2971229 1.9064924
off -0.2740607 -1.104477 1.0704932 0.4160995 -0.4321164 0.02723668 0.2688569 0.21604419 -0.607746 0.6791257 -0.42196378 0.29975352 0.28083235 0.22187644 0.14188522
working 0.22602329 0.030731715 0.9946853 -0.3853746 -1.0346133 0.09517066 -0.12914336 0.44012278 -0.1312914 0.9267783 0.0351942 -0.13911147 0.5454368 -0.1335238 0.20249993
talk 0.4937899 0.46413153 0.5838417 -0.09847536 -0.22809327 -0.13364981 0.82797754 -0.7237636 -0.15603991 0.24957494 -0.24460156 0.77102107 0.40408304 0.22805189 1.2643943
next 0.39850748 -0.5336121 0.6895238 -0.0413617 -0.716588 -0.7363418 0.6590845 -0.17835386 -0.465114 0.72993165 -0.4525976 -0.20931067 0.20126307 -0.12099013 0.43626946
different 0.4812232 0.72096545 1.1911055 0.03580607 -0.57390463 0.2543777 0.16866142 0.18133903 -0.3611221 0.27853456 -0.112522505 0.011633304 0.7042078 -0.108216 0.20867482
myself 0.22268324 -0.116786495 0.53548276 0.1308064 -0.38922074 -0.26474532 0.61322814 -0.2793072 -0.3978396 0.03710565 -0.24115345 0.65851086 0.667487 0.2191845 0.44360483
find 0.31960922 -0.13671236 0.31908664 -0.050374933 -0.5239465 0.09243052 0.8762819 -0.24773863 -0.48213595 0.699807 0.21568044 0.28838584 0.64990574 0.39789635 0.13072719
most 0.57983714 0.44665942 0.41479868 0.32077035 -0.94372517 0.10123121 0.15905304 -0.078904934 -0.7668985 0.117041364 -0.20025733 0.3072679 0.561503 0.0551439 0.089562654
until -0.09537852 -0.28555536 0.495595 -0.21244463 -1.2728908 -0.1409416 0.5425377 -0.20568693 -0.36507687 0.0099043455 -0.6804854 0.06787508 0.5059967 0.050154373 0.1155657
city 0.5649255 0.04939968 0.7203802 -0.62304246 -0.6870613 0.23614381 0.92473257 0.375211 0.12871437 0.8105287 -0.47983932 -0.29851073 0.6607608 -0.88455427 -0.14083579
nobody 0.32453948 -0.19808872 -0.11257892 0.061432056 -0.63116443 -0.46956545 0.6053606 -0.2184454 -0.040220413 0.78554165 -0.22876534 0.4490898 1.0361248 0.5722357 0.38319436
coming 0.14480929 0.10904481 0.114333555 0.6392494 -0.8204497 -0.07202491 1.2782489 -0.31055096 -0.33347848 0.93242586 -0.5807042 -0.12257403 0.3761752 -0.13890931 -0.13029274
taken -0.11327143 -0.15030183 0.7713421 0.046525512 -0.8659064 -0.1518899 0.2924716 0.22900735 -0.34905627 0.27451313 0.0729759 -0.35394835 1.1722434 0.32604823 0.22815844
am -0.20566717 0.18817186 0.34619883 -0.3779079 -0.14483489 -1.1829679 0.960081 0.52407265 0.13988587 -0.03986603 -0.07105611 0.79826945 0.7142682 -0.11642137 0.456824
sent -0.21641819 -0.49697348 0.5751161 -0.2666928 -1.172053 0.22659105 0.09672028 0.3262968 -0.57458067 0.39181966 0.47431123 -0.56822854 1.1235548 0.16738747 0.43014953
sort 0.92786 0.03475652 0.844983 0.3447144 -0.27991542 0.26288405 0.20094521 0.24886024 -0.22419284 0.2565699 -0.46600884 0.43399066 0.29441738 -0.13249645 0.42257708
part 0.6448583 0.23318976 0.88859975 0.06342214 -0.65529335 0.3820114 0.8041609 0.48025653 0.024775159 -0.08629924 -0.2350373 0.12845363 0.73401046 -0.28633052 -0.24263012
morning 0.18987703 -0.4369302 0.2542849 -0.3031029 -1.3221595 -0.48748255 0.4655378 -0.26143852 -0.56121457 1.169719 -1.0508924 -0.15237601 -0.4427136 -0.11562824 0.60101193
let -0.31092927 -0.60585 0.6953452 -0.03480249 -0.45748904 -0.0850729 0.83690256 -0.4213685 -0.1376376 0.83817923 0.03374672 0.52590895 0.43198335 0.22779538 0.6357514
poland -0.21576808 0.39416575 0.8588735 -0.37655804 -0.85654753 0.087453574 1.4575771 0.27113983 0.05433362 0.16389462 -0.23331414 -0.12828107 0.99350184 -0.67701805 -0.5292376
live 0.25974974 0.08060449 0.60586655 -0.60008 -0.6788996 -0.13627972 0.78910077 -0.15232795 -0.36148775 0.3514621 0.022191698 0.6973761 0.7305404 0.1098879 -0.1267482
friends 0.43628332 0.5514157 0.39972836 -0.40812024 -0.31878456 0.27445397 0.2949675 -0.6752141 -0.80134344 0.41318554 -0.17267719 0.3451152 1.2712172 -0.5013197 0.8634974
worked 0.46020845 -0.14673778 0.8472008 -0.6596351 -1.3130381 0.04981829 -0.43693894 0.51136446 -0.22019456 0.7667116 0.02997938 -0.034640025 0.5269289 -0.28026816 0.32185823
leave -0.21581087 -0.7733817 0.55916727 -0.59045583 -0.8223162 0.32489213 0.774828 -0.32402098 0.055553664 0.3899844 -0.1592819 0.44930646 1.0007802 0.067609206 0.40614995
group 0.21881157 0.5982406 1.191057 0.34536472 -0.50680286 0.19613732 -0.063502796 0.34776378 -0.36957392 0.5013999 0.009334313 -0.41050312 0.83681387 -0.14945422 0.6086242
end -0.22817275 -0.059383873 0.5513899 0.20463853 -1.2587934 -0.05958412 1.0041394 -0.07599073 -0.26138332 -0.0807365 -0.6199083 -0.06058194 0.37657747 0.19172472 -0.14612983
men -0.43359017 0.3494019 1.1400568 0.2154266 -0.39225218 -0.35280558 -0.21011516 0.2729209 -0.37278327 0.96570617 -0.19716267 -0.40019545 0.8859185 0.13338408 0.9057167
feel 0.43599924 0.36896616 0.6468925 0.33595416 -0.49325866 -0.27670085 0.775094 -0.21205409 0.07367921 -0.17380892 -0.5468679 1.3806938 0.4415715 0.2748706 0.3791345
must 0.13943955 0.20564388 0.58341026 0.2915147 -0.96955955 -0.4069149 0.5291968 -0.21211517 -0.34395203 -0.13686076 -0.24393944 0.29190412 0.11110209 0.018630765 0.7123188
states -0.054120842 -0.4832206 -0.26943645 -0.67886084 -1.3445737 1.5739611 1.31949 -0.23892923 -0.6648683 -0.6955051 -0.10437949 0.42999896 1.04872 0.28322896 0.6683338
stay -0.19864883 -0.25621405 0.7070529 -0.68288606 -1.0241549 -0.27199233 0.7801072 -0.26780272 -0.17865835 0.75706387 0.0106324665 0.32551792 0.47019053 0.1440646 0.13691111
camps 0.19051626 0.7472637 0.55228853 0.054803103 -1.3186629 0.40013862 0.37855718 0.1310875 -0.24623056 0.11160026 0.048754502 -0.6574986 1.1749854 0.83042544 0.60870486
small 0.54130256 0.14337905 0.9872835 -0.7366059 -0.5229188 -0.09849303 0.38335007 0.38837028 -0.57985616 0.64326787 -0.1895465 -0.17366324 0.831537 -0.5237421 -0.24180202
killed -0.40613016 0.22433409 0.46581835 0.82979184 -0.6262296 -0.46107277 0.66660064 -0.13243298 -0.8633072 0.49208507 0.2160471 -0.19865139 1.1437545 0.24669828 0.18832022
united -0.0974739 -0.6179644 -0.25451696 -0.53930455 -1.2213709 1.3931817 1.3464241 -0.30165327 -0.6813806 -0.67047966 0.06568895 0.4285339 1.1791868 0.14170904 0.66753685
help -0.017386591 -0.055973835 0.5655176 -0.061251197 -0.6405774 0.25113156 0.35683122 -0.29547387 -0.2088804 0.75007504 0.53691924 1.1413707 0.8510253 0.2589673 0.44881025
jew 0.3044035 -0.14403456 0.66184306 0.5808024 -0.25985512 -0.5194607 0.51939094 0.5187122 0.41755164 0.7226093 0.2677121 0.98393303 0.80706626 -0.6892717 0.28697193
last 0.31063095 -0.44099575 0.6050105 0.011304769 -1.0470201 -0.3743154 0.77000785 -0.16636823 -0.6129434 -0.33856845 -0.36892447 -0.3639283 0.4020413 0.23980545 0.5160047
money 0.3135505 -0.6594545 0.5570829 -0.6445042 -0.7333676 0.97767884 0.13301462 -0.16528507 -0.60349685 0.764757 0.48775837 1.1311978 0.8565406 0.013276033 0.28691328
cant 0.4396798 -0.13973345 0.7854638 -0.08309009 -0.44089502 -0.6422752 0.91461647 -0.20570162 0.06562668 0.158087 -0.20187972 0.9747022 0.31843534 0.5775405 0.511168
stayed -0.13689011 -0.3424156 0.5893003 -0.6352742 -1.1201212 -0.3335743 0.24670312 -0.1783353 -0.92370945 0.474967 -0.5454044 -0.33929747 0.8163567 -0.10780237 0.15575148
while 0.29033953 -0.24803852 0.54691046 -0.15702058 -1.0125861 -0.108832136 0.26276687 -0.058141265 -0.28456134 0.41186446 -0.47726837 0.05879722 0.41941494 -0.15366568 0.3153986
concentration 0.32725585 0.47668347 0.59414953 0.23211521 -1.33323 -0.035512842 0.34556952 0.311569 -0.23216234 0.08522447 0.06704702 -0.8734827 1.0441391 0.6231098 0.5961663
own 0.75080675 0.26094922 0.9236382 0.0871109 0.17065822 0.5324745 0.4461094 -0.1589962 -0.8476725 0.23954351 -0.058574006 0.56017065 0.9311784 -0.07269667 0.33548862
husband -0.087766774 -0.79456437 0.15729047 -0.44638178 -0.5692911 -0.6650459 0.58686686 -0.10540728 -0.60985774 0.22576495 0.21176492 0.21952172 1.2833524 -0.40242922 0.749599
happen 0.50363976 0.22974652 0.4837256 0.06779706 -0.5824866 -0.33448336 1.5862573 -0.3525255 0.06331185 0.3027376 -0.13744839 0.61592674 0.53141516 0.854072 0.15801442
asked 0.09068194 -0.5159524 0.46213874 0.07053263 -0.4831498 -0.11046411 0.5767664 -0.20721875 -0.22929598 0.6941126 0.42522115 0.19745177 0.3551613 -0.255819 1.1871057
brought 0.18533328 -0.10836674 0.49733284 -0.014735507 -1.0395938 0.0034430495 0.063193105 0.04193225 -0.77601045 1.0212848 0.16928191 -0.04779057 0.48180366 -0.18403777 0.07021276
point 0.61134315 -0.2976897 0.65731204 0.2073723 -0.47028375 -0.040097192 0.69371176 0.16610181 0.09467623 -0.07891715 -0.43366188 0.25696796 0.8128675 0.442321 0.29992118
fact 0.968721 -0.26449025 0.6901207 0.3827296 -0.75139785 -0.11429638 0.17851643 -0.014070977 -0.24983972 -0.19584693 -0.36867216 0.09575054 1.0615323 -0.2639677 0.41346878
such 0.9978582 0.15692227 0.4258028 0.30132037 -0.7200348 -0.12730516 0.36479273 0.12802099 -0.33206257 0.014046757 -0.07878969 0.7139092 0.61204946 0.13395417 0.042228766
ss -0.65788144 -0.04679033 0.83052135 0.7446392 -0.2814974 -0.3940511 -0.036900133 1.0003446 -0.15691811 0.9311563 -0.15740934 -0.30798665 0.29460505 0.10974029 1.0718759
looked 0.45872188 -0.4795605 0.4935355 0.6347593 -0.2814661 -0.8388781 0.09895824 0.05442047 -0.7142131 0.6082401 -0.39635623 0.23832595 0.506525 -0.006283779 0.586864
ever 0.78396034 0.14714718 -0.01996396 0.27812344 -0.5019771 -0.07456914 0.87353027 -0.51021814 -0.2972411 0.14227225 -0.1350801 0.35308242 0.8029758 0.70096666 0.9680195
ok -0.2229002 -0.3818043 1.0502613 -0.29373586 -0.38765502 -0.5667852 1.4933033 0.03466081 -0.042960733 0.204832 -0.14241393 0.6445197 -0.38467738 -0.3450863 0.27085608
each 0.21536481 0.43068627 1.159922 -0.059675466 -0.15968502 -0.030103663 0.21333855 -0.37273005 -1.0507184 0.82189864 -0.11404872 0.14185429 0.096646786 0.14306921 0.79893416
during 0.3707631 0.24954876 0.3066671 0.04998009 -1.2825124 0.104552604 0.43983135 -0.28616095 -0.79018915 0.112523735 -0.8568896 -0.26627055 0.3166417 -0.16174123 0.17682055
call 0.24706043 -0.08368956 1.0267842 -0.1191543 -0.7549798 -0.21800327 0.18945369 0.4424445 -0.08227486 0.6628363 0.016740398 0.07068621 -0.31058258 -0.014926608 0.73943937
child 0.076987 -0.1562508 0.60455155 -0.25875506 -0.28500375 -0.6777762 0.42647675 -0.290653 -0.7459683 0.14170933 -0.1821513 0.78580904 0.72794753 -0.30295366 0.4079745
woman 0.00893633 -0.17338602 0.65538824 0.057259914 -0.40523002 -1.1030838 0.054159243 0.19840579 -0.61871564 0.774961 0.39967704 0.31628677 0.8353431 -0.56784105 0.6259247
four -0.54176843 0.32423425 1.122061 -0.6008301 -0.72079736 -0.37938786 0.15768379 -0.2419734 -1.3721657 0.2548359 -0.58269155 -0.20523357 0.34761757 -0.04988327 0.59984964
year 0.01849154 0.009449666 1.0360978 -0.48100737 -1.3138579 -0.42870805 0.56533635 -0.12468408 -0.5457626 -0.7889115 -0.50222826 -0.044418734 0.25950968 -0.44817194 0.66896623
living 0.42845973 0.30707306 0.6777727 -0.61543477 -0.64504176 0.0771924 0.48849136 0.06521143 -0.7851128 0.33672273 -0.010546572 0.26757857 0.8737093 -0.2606001 -0.3212785
else 0.79313403 -0.30819044 0.40347862 -0.06713878 -0.52181983 0.21415994 0.57375866 -0.2888755 -0.21499956 0.7356982 -0.16035418 0.6448679 0.5234445 0.3166772 0.34985593
wouldnt 0.049575523 -0.2641543 0.50217885 0.12196177 -0.6702983 -0.19484873 0.401386 -0.4059927 -0.021477712 0.558917 0.028524907 0.8768441 0.7226958 0.31737903 0.693053
born -0.35454348 0.17642538 1.0344098 -0.8764198 -0.32470024 -0.56024265 1.7433966 0.2628635 -0.64556223 -0.5455193 -0.26640683 -0.026431583 0.86161745 -1.1621445 -0.07104707
word 1.0894848 0.28789863 -0.19726732 0.6612642 -1.3158293 -0.7068405 0.72995734 0.98213035 0.12841354 0.60117435 0.7225886 0.52147055 -0.25664392 -0.13809259 0.37822065
person 0.7344812 0.17247017 0.65174776 -0.06897759 -0.38326177 -0.59022224 0.07683837 0.3147305 -0.32816675 0.104676135 0.35273278 0.76234424 0.66359127 -0.11293827 0.5503717
theyre -0.3972607 0.37737444 0.76772994 0.16406152 -0.32870173 -0.22231743 1.2502205 -0.11921074 -0.065099224 1.2894084 0.116257094 0.44662547 0.429326 0.36665112 -0.09171682
bread 0.6842693 -0.7668966 0.37425843 -0.28821677 -1.4742354 0.18255581 -0.073054574 -0.12831384 -1.6236413 0.86391264 -0.0068730996 1.0276325 -0.43980962 0.10705492 0.09674481
enough 0.09821747 0.005703772 0.56750154 -0.054964367 -1.1062603 -0.12595789 -0.0076435497 0.09501811 -0.20080031 0.27086276 -0.05736317 1.1187344 0.47373074 0.32170275 0.00052506675
hitler -0.17857347 0.07168154 0.7099963 0.56234217 -0.3301383 0.10218424 0.8421829 0.20618735 0.5971793 -0.2938165 -0.6842831 0.24291815 0.58535457 -0.46914995 1.2788755
afraid 0.253162 0.051575433 0.31974566 0.33983764 -0.5384269 -0.73229903 0.84150153 -0.4305832 0.07071503 0.918575 -0.13191785 0.6988518 1.0262733 0.30019593 0.27231863
better 0.23069863 0.24049425 1.1569963 -0.25932142 -1.0192844 -0.44185156 0.19073622 0.17583738 -0.080872335 0.23522025 0.11977532 0.88004565 0.38345006 0.35195732 -0.07420693
theres 0.765972 -0.03278032 0.5870706 0.24383478 -0.52011824 -0.21222822 0.97933257 0.015994204 -0.23337291 0.41324052 0.2229357 0.19327156 0.2902305 0.20325676 0.2789857
actually 0.14380522 0.17269586 0.5986583 0.21130633 -0.69603604 -0.1183633 0.4302756 0.089138635 -0.24941921 0.06232042 -0.3719322 -0.047441676 0.7262021 0.118947044 0.26033178
tried 0.10848554 -0.45251733 0.49919862 0.05785971 -0.6548842 0.75111485 0.51137096 -0.22453639 -0.22538176 0.59753984 -0.037308916 0.5059289 0.832617 0.109656006 0.23890747
somehow 0.19520287 -0.14539656 0.39526907 0.2448733 -0.63171375 -0.07723144 0.45263073 -0.24887416 -0.4216424 0.28528285 -0.10967431 0.45106515 0.8863313 0.24928318 0.16258794
room 0.72662675 -0.16531742 1.1217612 -0.75836563 -0.26916814 -0.78558064 0.121408425 0.20081867 -0.86213464 1.1018244 -0.4380201 0.01952198 0.3077952 0.036917396 0.2534979
side -0.102477565 -0.34562245 1.2463207 0.32180038 0.48241404 -0.011247811 0.6313164 0.23484129 -0.54871327 0.8792873 -0.6170798 -0.26124066 1.0643704 -0.011546856 0.31644648
hear 0.3543527 0.32836756 0.34356332 0.7371019 -0.5578437 -0.21255726 1.407228 -0.55145 -0.1984647 0.7052395 -0.5984323 0.23676682 -0.15428017 0.069846824 0.49361628
doing 0.1463749 0.47398314 0.66717666 0.17971279 -0.48293915 -0.1511269 0.48071507 -0.04353176 0.17261232 0.7908388 -0.20737952 0.66847014 0.39587724 0.043590367 0.4171104
street 0.41066635 -0.3559394 0.3450754 0.35504046 0.119944 -0.03420085 0.6140348 0.048504516 -0.3004377 1.2214108 -1.2137226 -0.3771905 0.9155444 -0.4152755 0.5661823
once 0.55987513 -0.39038143 0.44900793 0.08340462 -1.037131 -0.06972887 0.1418133 -0.016694525 -0.26466623 0.21399353 -0.28227872 0.2607086 0.31686005 0.08211612 0.47821298
quite 0.5494763 0.1926467 0.6060878 0.13765705 -0.94507253 0.02571536 0.1754791 -0.19270411 -0.37850916 0.05776324 -0.5275623 0.30648875 0.8689045 -0.4248439 0.13608043
under 0.04893913 -0.09373984 1.1855463 0.61905015 -0.53886336 0.2420319 0.23920244 0.4631676 -0.63091487 0.18090847 -0.24660093 0.21286163 0.24023941 0.013673449 -0.19823432
five -0.70483035 0.4112085 1.1964344 -0.6611976 -0.8391717 -0.48724478 0.22422822 -0.22096881 -1.0245188 0.32638207 -0.53259283 -0.18824448 0.026799679 0.1741525 0.7960298
ich -0.90792835 0.66000473 -0.6272558 -1.194719 -1.2664793 -0.5248789 1.5977008 2.941544 -0.67441386 -0.03064917 -1.1737858 1.5204741 -0.10015168 -0.07316052 1.8045061
holocaust 0.5221176 0.45468643 -0.65608436 0.13751537 -0.8867838 1.2941992 1.7750177 -0.17963003 -0.88178724 -1.3024949 0.05697109 0.4446331 0.5484585 0.41044316 1.3522385
ask 0.40451252 -0.1384911 0.6049736 -0.20580547 -0.35624883 -0.43988127 1.0735441 -0.5750078 0.03130282 0.581452 0.1942195 0.41617766 0.286132 0.32136455 1.4197412
hes -0.15987751 -0.23662037 0.5909603 0.16621247 -0.84159243 -0.96466017 1.0150123 0.20728055 -0.42843577 0.2306424 0.9481599 0.7592079 0.42411628 -0.7470552 0.052899156
contact 1.1380607 0.46090314 0.2851145 -0.6813577 -0.4585264 1.088423 0.60983944 -0.17890579 -0.3907534 0.51327366 0.03808039 -0.4075427 0.86871374 0.63196963 1.4994526
start -0.52398384 0.06278411 0.7261654 0.0432192 -0.35754636 0.1252881 1.1885836 -0.3886532 -0.31545267 0.71254754 -0.6877148 0.5147905 0.06703637 -0.056074396 0.12261598
able 0.08081996 -0.3108284 0.7613071 -0.23608014 -0.9406558 0.5656901 0.37449178 -0.24646863 -0.19796255 0.12865667 -0.105793424 0.7640589 0.546866 0.6695427 0.36264515
understand 0.18779118 0.55184346 0.745498 0.23497216 -0.55725753 -0.32447866 0.8883748 -0.12946337 0.20885344 0.11051466 -0.04512917 0.8371324 0.39555982 0.33909008 0.52843726
anymore -0.015980227 -0.24717149 0.5273926 -0.2933808 -0.70085925 -0.3744258 0.2012512 -0.17414369 0.24052379 0.5393471 -0.5043605 0.8287987 0.8229677 0.43972397 0.6116055
between -0.3639269 0.5238338 1.3319702 0.23742191 -0.19241735 0.43495652 0.6059521 0.24840687 -0.21861815 0.2819117 -0.63842577 -0.16075814 0.6828113 -0.3186392 0.15954284
friend 0.54271257 -0.63676757 0.33554927 -0.3499463 -0.37395066 -0.613312 0.22922274 -0.17915058 -0.8530228 0.37681124 0.33389705 0.32991192 1.0750881 -0.687722 0.91370314
women -0.509703 0.5196626 1.1684397 -0.06495654 -0.3854914 -0.61049813 -0.33711085 0.3069212 -0.57737917 0.843493 -0.24278414 -0.17714897 1.0231174 0.3390982 0.6243779
sick -0.1676257 -0.46410406 0.2009466 0.115104675 -1.3730962 -0.9346101 -0.32437918 0.11985842 -0.73404235 0.34559283 -0.17051873 0.36770934 1.0816032 0.62156594 0.2402408
became 0.3812561 0.08627648 0.60236806 0.40194458 -0.83145434 -0.030542158 0.059225094 0.45517915 -0.12255122 -0.46734133 -0.5878017 0.36030632 1.1065551 -0.5406997 0.1415594
new 0.6198225 -0.24084057 0.3096798 -0.36094034 -1.3459477 0.2960843 0.7350473 0.072279 -0.7089583 0.018450534 0.3633267 0.15699872 0.42204455 -0.8965819 0.0823705
died -0.30328438 -0.1917376 0.010446896 0.12895091 -1.2705336 -0.42434686 0.3752461 -0.3112927 -1.5717856 -0.3582769 -0.080497466 -0.15093474 1.2354847 0.38307825 0.23665714
world 0.53836346 0.14150703 0.26361668 0.49798757 -0.7848837 0.1346701 1.001948 0.22493923 -0.19801824 -0.33580497 -0.10115062 0.37285668 0.79290354 -0.011764463 -0.1603856
probably 0.18458815 0.22302416 0.75701183 0.22968443 -0.79133 -0.27783024 0.4686672 -0.03986153 -0.3300315 -0.036028415 -0.083165646 0.26479036 0.62366515 0.28963217 0.2524674
alive -0.008241662 -0.061370265 0.30789384 -0.17705886 -0.9295055 -0.8457629 1.0665185 -0.2828312 -0.94250023 0.31042203 0.6974166 0.42352557 0.99693274 0.39441296 -0.16523325
times 0.15436497 0.5049545 0.551583 0.16004074 -1.0181477 0.0150104845 0.24457824 -0.5958341 -0.7931985 0.19752552 -0.41633984 0.24752186 0.39797938 0.110738285 0.5326301
bit 0.58831143 -0.15238576 1.1193838 -0.4006417 -0.49887317 0.11663638 0.25574797 -0.082197465 -0.5218197 0.26178867 -0.5704013 1.0401886 0.20240103 -0.3030369 -0.0490535
der -0.9385152 0.011345523 -0.23423803 0.40339297 -0.4777194 -0.13306622 1.8780496 2.9700754 -1.1894213 0.05028366 -0.7189053 0.29780862 -0.18315929 -0.08364584 1.7501466
bad 0.27911824 0.1165554 0.22715117 0.27648446 -1.3480064 -0.50233257 0.26951766 0.12080578 -0.14693275 0.10235287 -0.51937085 0.75663435 0.68761706 0.25979337 -0.28000247
months -0.4984637 0.14180623 1.1489232 -0.5670474 -1.7340851 -0.17657177 0.1325674 -0.18233259 -0.8196031 -0.3275065 -0.14445308 -0.19065927 0.36097583 0.059236784 0.66499704
water 0.23756588 -0.48739135 0.26947945 0.017987229 -1.0992646 -0.21420598 0.13036676 0.21480384 -1.0372952 1.0976648 -0.8488255 0.87114096 -0.32520366 0.64457804 -0.3366912
walk -0.23440273 -0.54525095 0.8571638 0.009820515 -0.4739622 -0.35966912 0.25303844 -0.016172128 0.10116963 1.0573016 -1.3260971 0.42442092 0.4227622 0.58432674 0.39229915
girl -0.110804364 -0.089375354 0.763718 -0.13870329 -0.35316277 -1.0706605 -0.0074154465 0.07471 -0.5206847 0.43710867 -0.031325467 0.6465933 0.77212197 -0.7968887 0.8139766
kept 0.13860267 0.102916256 0.1641837 0.33404756 -0.674002 0.16981502 0.62550884 -0.3742864 -0.8964691 0.7863454 -0.22657278 0.15758777 0.3589799 0.25742492 0.14836441
story 0.6642498 0.07881314 0.82267964 0.07360103 -0.71600294 -0.29203352 1.3349959 -0.23511083 -0.58801615 -0.25028992 0.40217158 0.25361785 0.07234852 -0.11532767 0.38403952
talking 0.123763084 0.64194804 0.6644136 0.18920128 -0.24588582 -0.14201328 1.0367045 -0.4739578 -0.26136968 0.40254185 -0.22275035 0.14352235 0.37556735 -0.05778436 0.8542764
sure 0.39387882 -0.1108806 0.43030262 -0.10768501 -0.66588444 -0.5749896 0.5994979 0.036551487 -0.057986327 0.37459657 -0.09795368 0.57836926 0.6568265 0.19722605 0.14562573
da -0.9617281 0.38761 -0.657629 -0.50234246 -0.38307983 -0.21625912 1.8031831 3.200041 -1.484221 0.033106066 -1.1851598 0.92638165 0.7535673 0.47894886 1.5824767
without 0.6287739 -0.21983539 0.40520912 0.022085035 -0.46099472 0.29050332 -0.03539286 -0.020155948 -0.39616454 0.5000031 -0.33999282 0.5822467 0.69998586 0.58586204 0.49451178
girls -0.48283723 0.864045 0.7993388 -0.19375803 -0.5801532 -0.6697365 -0.19921556 -0.09684626 -0.6000419 1.0149215 -0.28466874 0.15701956 0.55878544 -0.32350072 0.7942565
russian -0.6587571 0.2800385 0.822431 1.0205734 -1.3639078 0.16694626 0.8990321 0.2204535 -0.045169495 0.7773519 0.06533183 0.06814021 0.29494837 -0.9543376 -0.24726039
looking 0.481573 -0.17016608 0.45119986 0.4544925 -0.20092435 -0.3327246 0.38760576 -0.19736703 -0.55441844 0.9043784 -0.2481194 0.13718912 0.59582216 0.02384361 0.6060327
nicht -1.0898913 0.8822871 -0.91210145 -0.8624932 -0.889809 -0.32354525 1.8965054 3.157903 -1.1030089 0.638603 -0.53259397 1.5167586 0.01294795 0.33219925 2.2065787
hat -1.161968 -0.38962653 0.1495091 -0.0043537193 0.15460256 -0.30093256 0.5291021 2.556192 -0.9737216 0.38068262 -0.66793257 1.2314135 0.27864453 -0.09663294 1.5905414
terrible 0.5050868 -0.13977022 0.13601412 0.68996733 -0.9566398 -0.82752913 0.31086642 0.04440921 -0.47146678 0.08341132 -0.95271707 0.47633812 0.5143285 0.5797195 0.030788664
front -0.45060316 -0.31798604 0.86324 0.7398911 -0.13060021 -0.056667276 0.8048455 0.4111835 -0.38520524 0.8138392 -0.5715448 -0.32675806 0.31069914 -0.29512993 0.22532141
army -0.7885216 0.003729002 1.0852835 0.74627435 -1.3471003 0.26181906 0.44157013 0.49187016 0.11518258 0.33793485 -0.14055176 -0.07269995 0.5739975 -0.8631047 0.105211616
ist -0.9671868 0.0020585402 -0.9526615 -0.025644543 -0.55179626 -0.3542132 2.0060413 2.980806 -1.5272936 -0.022478411 -0.29216072 0.4959856 0.69254243 0.15981567 1.9327465
factory 0.1989082 -0.284866 1.5835291 -0.6388125 -0.91742724 0.18117526 0.059647597 1.1156228 -0.25912747 0.90720236 0.14098954 -0.31863973 0.31092444 -0.16821812 -0.22449578
survive 0.25150284 0.08757785 0.7171312 -0.19043015 -0.8517496 -0.18134072 0.5016944 -0.22587445 -0.5794715 0.20498614 0.6141198 0.97478056 0.9579819 1.1270498 0.04788793
wir -1.400661 0.07390999 -0.4055737 -0.3647484 0.10316006 0.10729828 2.0119424 3.1597142 -1.2820686 0.042463917 -1.6010133 1.3755105 0.93292964 0.56540334 1.5032512
outside 0.74917614 -0.07217222 0.8062883 -0.07910146 -0.6799477 -0.0019832656 0.3445488 0.21147795 -0.3289156 1.2055671 -0.6404687 -0.43322912 0.37879792 0.1478298 0.06528779
far 0.42510313 0.026933825 0.80208606 -0.34371284 -0.5438112 -0.20568651 0.61210936 0.3970564 0.40161696 0.47393364 -0.621942 0.18970326 0.97498584 -0.09644672 -0.19236034
weeks -0.3792993 0.018971596 0.9309527 -0.50665975 -1.6864682 -0.07680952 0.27007753 -0.2594877 -1.1390095 0.13844803 -0.54699546 -0.47582358 0.18708809 0.36933354 0.3769928
country 0.32869983 0.1284482 0.6884314 0.1234007 -0.942825 0.6879114 0.9393117 0.014003352 0.100965254 -0.044499844 0.007409693 0.5857523 0.74006975 -0.4738925 -0.07916434
dead -0.12716083 0.18561271 0.65895844 0.5086049 -0.54779947 -0.7037088 0.5839416 -0.18691957 -1.2011874 0.72366124 -0.09130175 0.24362476 0.51489574 0.524472 -0.13908966
ill 0.035557885 -0.76988876 0.5215483 -0.44910747 -0.4994708 -0.32300374 1.0372002 -0.2907902 -0.50017846 0.108936876 -0.006091033 0.8904863 0.031775784 0.601984 0.63653487
hard 0.63111097 -0.10395154 0.8900009 -0.17695865 -1.0756121 -0.21206352 0.16538267 0.10569274 0.12768507 0.39537168 -0.397552 1.0993924 0.50324696 0.28022432 -0.2442457
further 1.1806465 0.3558998 0.35120493 -1.688942 -0.14331828 0.9821217 1.2914474 0.38685688 -0.4734804 0.6985846 -0.9323043 -0.75290614 0.29024684 1.055491 1.588879
sometimes 0.41808793 0.35236692 0.69832003 0.05170169 -0.80344653 -0.025164818 0.34888956 -0.41501576 -0.37884933 0.70435476 -0.45768374 0.67010915 -0.10960656 0.16422509 0.45052746
sie -1.1265614 0.37367213 -0.34450975 -0.7233502 -0.05551742 -0.17718703 1.5921474 3.1923153 -1.4869754 0.5383814 -0.76607585 1.2080843 0.28698665 0.5646231 2.0628753
hiding 0.4095601 0.085860915 0.3432214 -0.15492098 -0.5704002 -0.10342203 0.8954026 -0.4161234 -0.9603128 1.4666466 0.19434814 -0.2423422 1.0303514 -0.14774668 -0.11540684
wife -0.24661422 -0.3366387 0.30250704 -0.18427442 -0.7214795 -0.4383701 0.41745585 -0.30274963 -1.1366049 0.20178072 0.43346757 0.14970958 1.1096867 -0.6471466 0.6297104
shot -0.3677761 -0.29850703 0.7032728 1.115763 -0.69017386 -0.5031315 0.78125495 -0.041194268 -0.7013714 0.8093012 0.2415553 -0.03952538 0.40837818 0.31363267 0.21474028
bring 0.27213225 -0.35741013 0.59173316 -0.38843524 -0.9002917 0.30039963 0.5004862 -0.16050279 -0.72322154 1.1275661 0.28238666 0.6997397 -0.13004355 0.04237089 0.06327384
eat 0.16542225 -0.5133612 0.10248425 -0.44818696 -1.3157618 -0.2827288 0.061213527 -0.41609827 -0.87122124 0.8627641 -0.41419917 1.4739954 -0.083426766 0.3204266 0.21306072
run -0.22230513 -0.44081435 0.453278 0.32758313 -0.40794733 -0.033250555 0.6740271 -0.09894455 -0.24387428 1.4320663 -0.08976172 0.26407003 0.7639453 0.15457952 0.13087642
ja -1.4260828 0.47898203 -0.6874577 -0.553761 -0.92139286 -0.46947813 1.9806919 3.2481399 -1.3669925 0.20008676 -0.75004363 1.1221613 0.6350919 0.61125356 1.5447564
walked 0.052664444 -0.52742976 0.6595953 -0.009719372 -0.53131074 -0.6141308 0.13511834 0.10351456 -0.37348542 1.0010412 -1.0651191 -0.25429925 0.4211894 0.069042504 0.5505361
nice 0.4225497 0.22006989 0.64388365 -0.2674221 -0.8698755 -0.62110126 0.1383966 0.029942404 -0.53702366 0.80627376 0.08664229 0.9980262 0.32058382 -1.109692 0.021599075
certain 1.0074171 0.21504708 0.7684409 0.07133814 -0.79642457 0.7991551 0.18602467 0.06786095 -0.2991584 0.435643 -0.09293423 0.10721526 0.49597645 0.25520945 0.38861567
information 1.677522 0.41624883 0.4299872 -0.6885655 -0.36167496 1.5706791 1.4328104 0.43710133 -0.6638 0.3563833 -0.22353141 -0.43222696 -0.077837564 1.1105471 2.0768583
matter 1.0625623 -0.33230206 0.74876493 0.22015531 -0.6488731 -0.3832053 0.41333732 -0.21048427 -0.3148708 -0.086142965 -0.4175786 0.2885792 0.8563941 0.03843378 0.3873397
eh 0.6401152 -0.07642369 0.86979395 -0.17854123 -0.5692233 -0.1253337 0.3923667 0.13861725 -0.12603997 0.5292434 -0.034045678 0.2074855 0.8244055 0.32128578 0.104519896
head -0.09625179 -0.5635468 0.9205882 1.1492795 -0.54356986 -0.34508443 0.4081695 0.29706967 -0.8859333 0.42406368 -0.053105712 0.51321936 -0.0990123 -0.3724549 0.08727342
israel -0.052870926 0.029815963 -0.08305123 -0.62679493 -1.024916 -0.18727465 1.055206 0.09918863 -0.47244343 -0.58465594 0.4985413 0.354448 1.1958116 -0.17911525 0.39250258
care -0.35933572 -0.15687531 0.8343336 -0.14271697 -0.5875243 -0.52888596 0.061823815 0.16580999 -0.23489012 0.45737267 0.30132356 0.7920777 0.85284376 0.4112125 0.44096375
finally -0.09319075 -0.701156 0.48823914 0.09465035 -1.1683003 -0.119697504 0.6024346 -0.26774016 -0.25579002 0.3621742 -0.5332135 -0.10139472 0.7471398 0.08087716 0.22526884
married -0.34956518 -0.1783806 0.36269155 -0.7142184 -0.9174609 -0.5834207 0.3273795 -0.040274005 -0.8703711 -0.19920689 0.05212565 0.28114712 1.5549858 -0.99692976 0.53456074
kids -0.14534044 0.7534788 0.8551749 0.19868277 -0.15103379 -0.3378605 -0.022256428 -0.5476652 -0.7384521 0.71495336 -0.5099224 0.893865 0.6840946 -0.6489233 0.7137167
interview 0.34854347 -0.21765344 0.26753768 -0.15763299 -0.0249327 -0.005558231 1.5896181 0.65263474 -1.2487937 -0.45502245 1.2467196 0.027877929 -0.3578153 -0.54579085 1.5460769
keep 0.2968479 -0.061144575 0.65091413 -0.09713676 -0.25969622 0.40515217 0.48961246 -0.33189908 -0.63071835 0.611075 -0.24231474 1.1307838 0.20877613 0.5660785 0.33763903
beginning 0.023028301 0.19685824 0.424546 0.0680164 -1.1497461 0.23282187 0.53657573 -0.19895701 -0.041272253 -0.114159554 -0.90651107 0.22048937 0.68813235 0.021344814 0.23896094
older -0.4876606 0.2694262 1.2989086 -0.48905432 -0.08647186 -0.78023106 0.17983584 -0.24020389 -0.8272377 0.009754268 -0.27910328 0.4547948 1.3829947 -0.17055626 0.69227934
may 0.3132073 -0.3581198 0.49502075 -0.070755765 -1.2591616 -0.09100596 1.1312274 0.27422014 -0.029971585 -0.652306 -0.3014216 0.17988302 0.1664078 -0.07227877 0.10535713
particular 1.0158292 0.14376448 0.6171149 0.22461309 -0.7793979 -0.18271735 0.08622752 0.17618537 -0.135417 0.5389292 -0.25388816 -0.2920217 0.41634253 0.08834411 0.7801315
american -0.407018 -0.33094537 0.58069813 0.8336347 -1.5614272 0.61909986 0.83580667 0.1541578 -0.06260053 0.04931896 0.23371017 0.11657582 0.28500256 -0.84772563 0.24613905
try 0.38487366 -0.38450283 0.8665328 -0.114222184 -0.2844414 0.75123614 1.0115916 -0.34389335 -0.1932806 0.26981646 -0.0068577533 0.97906375 0.30866653 0.41108793 0.43743327
anybody 0.53863674 0.04535487 0.13906838 0.16796224 -0.33301085 -0.16225046 0.6888991 -0.16281234 0.22387494 0.71957517 0.09543455 0.5602673 0.9387612 0.73530835 0.8335913
six -0.40128344 0.5992516 1.4042262 -0.81021065 -1.0062226 -0.4102768 -0.051283643 -0.11518109 -1.1669204 0.008111715 -0.45382392 -0.14454477 0.17928043 0.06572935 0.71713966
survived 0.04980272 0.26756 0.41802588 -0.063284874 -0.95223546 -0.43707335 0.55765927 -0.17052749 -1.2186269 -0.053487547 0.56924635 0.062241547 1.3212705 0.6070092 -0.022306342
allowed 0.16034792 -0.37763286 0.5346913 -0.5671832 -0.75513554 0.6143188 -0.19676794 -0.054523867 0.31547257 0.7057619 -0.6593175 0.52375627 0.6875938 -0.009625513 1.1656338
police 0.2773772 -0.27063358 0.84008956 0.5176464 -0.5787946 0.18414226 0.6127941 0.37357858 0.4947434 1.3516475 0.11202986 -0.53945875 0.5336647 -0.48187426 0.91332376
cannot 0.45500323 -0.21255277 0.7761607 -0.27485758 -0.6085587 -0.46417817 0.90416354 -0.093213394 0.02376212 0.034770563 0.033959698 0.912183 0.33226088 0.47530803 0.3555202
decided 0.08870967 -0.53557754 0.4387439 -0.3488106 -0.7924997 0.2733512 0.75349176 -0.21597639 -0.24937274 0.3680278 0.043558754 0.34869042 1.0460306 0.06832066 0.13772866
hospital -0.061865702 -0.6280447 0.33310676 -0.015379487 -1.7581948 -0.26855212 -0.3034353 0.5261842 -0.39452016 0.36757565 0.08908788 -0.4775569 0.8865136 0.13117267 0.4764722
getting -0.035332818 0.048689682 0.37858763 0.32511002 -1.1312348 0.12145603 0.31175232 -0.27825108 -0.5590328 0.43717158 -0.8120903 0.58247757 0.69631493 0.22954021 -0.396153
haben -1.402976 0.45022887 -0.53909737 -0.29665595 -0.16535284 0.12199038 1.561372 3.2888448 -1.192442 0.800757 -0.9582967 1.2367839 0.88286924 0.8921089 1.6655791
job 0.3174187 -0.4778241 1.115548 -0.6547797 -1.08828 0.11995737 -0.3440039 0.5730762 0.08686466 0.25111076 0.025508726 0.7705608 0.5354492 -0.27663478 0.2538761
nazis -0.36472738 0.41024178 0.49328867 0.8816232 -0.18512172 0.5280711 0.6317041 0.5070607 0.33277774 -0.06276278 -0.59919894 0.2057182 0.93258876 -0.2359625 0.85294306
russians -0.8303742 0.3062183 0.622292 0.66244423 -1.444988 0.17394102 1.2430712 0.04092458 0.07525242 0.5514435 -0.5072673 -0.09550971 0.68608534 -0.28740516 -0.5580611
door 0.6625223 -0.9629728 0.45156503 0.395057 0.10226023 -0.90381503 0.8447673 0.16072036 -0.3482413 1.7656497 -0.5668963 -0.12429666 0.6231287 -0.23035243 0.555061
anyway -0.10712616 -0.4300251 0.32547817 0.105768755 -0.9812092 -0.40743995 0.51042044 -0.06273594 -0.07498784 0.25301552 -0.31665716 0.30775064 0.6715137 0.19067416 0.2758207
whats 0.43704104 0.11715002 0.5470485 0.09082981 -0.45642728 -0.42860052 1.5225486 -0.3888451 -0.05203349 0.53991914 -0.29913047 0.20205937 0.37373593 0.63434756 0.2362288
lets 0.28267542 0.19226432 1.0135375 -0.6135109 -0.28910947 0.036812134 1.1283984 -0.24752682 0.032663736 0.66006327 -0.18950894 0.25277463 0.03347381 -0.05166741 0.5572747
trying 0.26556918 0.17570516 0.6743696 0.16536969 -0.15534751 0.6156829 0.7145187 -0.25020316 -0.35902685 0.622076 -0.15807205 0.6073998 0.75036895 0.3411542 0.14798431
met -0.016389392 0.007789408 -0.10174718 0.02853994 -1.0078933 -0.5530681 0.50776464 -0.2435256 -0.780299 0.3084742 0.1480888 -0.36219433 1.1808754 -0.53870475 0.7755836
checked 0.9420712 0.90117097 -0.61579186 0.09586382 -2.243054 -0.21027124 0.865474 1.3650243 -1.344595 1.2514607 1.4791044 0.37452388 -0.41475698 0.35923487 0.9030804
almost 0.6463275 -0.25806323 0.8534144 0.3811594 -0.9200225 -0.16459922 0.38815087 -0.012929114 -0.47054225 -0.08806962 -0.6866033 0.32103708 0.51968026 0.14637111 -0.16242032
feeling 0.86875194 0.41478026 0.34204096 0.5301781 -0.45872223 -0.10191544 0.7493538 -0.12755239 -0.2630493 -0.0318368 -0.53838354 0.7737066 0.69822896 0.39126307 0.11044207
done 0.75172347 -0.04449719 0.5524473 0.25878468 -1.0315628 0.28272253 0.27391157 -0.0049576545 -0.041470658 0.14166415 0.19900392 0.53911173 0.48234642 0.63402206 0.58609056
close 0.31017724 -0.10788046 0.57775384 -0.1779796 -0.4281433 -0.19302505 0.72718215 -0.25974217 -0.69253975 0.3711224 -0.54969686 -0.032267828 1.1276964 -0.2261182 -0.07842632
museum 0.4187345 -0.12617981 -0.8370263 -0.8350956 -1.8032271 1.9560238 2.9453566 0.99933124 -1.525031 -0.6457403 0.2308858 0.4147763 0.7198876 0.23652686 1.948245
since 0.2327061 0.33933997 0.31370816 0.020872997 -1.0430406 -0.16605182 0.28742537 -0.16455439 -0.3684817 -0.15068732 -0.015451448 0.19462408 0.9092098 -0.116581514 0.5953873
spoken 1.8696128 0.8388245 0.12683047 0.65755486 -1.7087654 -1.2372739 1.0266322 1.9274055 -0.4600734 0.33755392 0.7475774 0.54867065 0.059575614 -0.50037056 0.8604064
uncle -0.014512317 -0.67274064 0.5824806 -0.46033403 -0.39687967 -0.054550625 0.5212415 -0.24956997 -1.0189123 0.008715233 0.17270136 0.043067776 1.25793 -0.6192686 0.78851247
memorial 0.5188867 -0.13729492 -0.7078498 -0.8034364 -1.57648 2.0206132 2.6822908 1.0386153 -1.7650747 -1.1514938 -0.23708181 0.5759765 0.7392577 0.42596543 2.0534372
collection 1.2829574 0.34645888 0.31173322 -0.9070538 -0.4856243 1.4400697 1.4765115 0.8753632 -1.1785543 0.41495815 -0.50411886 -0.6263746 0.124384284 1.0400974 1.9261754
whether 0.54931855 -0.2150679 0.40961897 0.35900843 -0.71241504 -0.049890388 0.6144138 -0.08096926 0.1958856 0.22917955 0.122312784 0.32457766 0.5004832 0.46575177 0.9484507
number -0.09746749 -0.136164 1.4871985 0.04163249 -0.5671233 0.098824576 0.2610402 0.44032806 -0.76330936 -0.30033264 0.5933576 -0.2243834 0.02737568 0.5149362 1.0826883
speak -0.17261787 0.80366856 0.44813198 0.15125267 -1.0907394 -0.161554 0.6328191 -0.24174812 0.32997334 0.3297944 0.40011308 0.9846038 0.11413827 -0.39820972 1.0590949
clothes -0.13780539 -0.792819 1.353952 0.012954639 -0.48299748 0.22364146 -0.39550608 0.36158338 -0.84466743 0.8602538 -0.42203796 0.7754404 0.16540802 0.1483034 0.1960459
beautiful 0.56064785 0.24884097 0.38394016 0.05540361 -0.4705287 -0.7340623 0.22531001 0.44095263 -0.8398089 0.7186933 -0.37562555 0.6205802 0.16368546 -1.3550202 -0.14946534
mind 0.5610053 -0.26534262 0.73789454 0.16866441 -0.2028327 -0.027110383 0.911955 0.059350483 -0.27592087 -0.10015818 -0.10861863 0.75858134 0.6068115 0.6746513 0.13504055
soldiers -0.5564046 0.19253393 0.7743341 1.1764956 -1.011741 0.17410488 0.44893312 -0.012931247 -0.26276135 1.1206962 -0.23280938 -0.06173172 0.09319892 -0.35502115 0.48005557
till -0.18901399 -0.29108763 0.4034927 -0.64001757 -1.6386435 -0.27696678 0.6909688 -0.26380736 -0.17601235 0.43174118 -1.1267035 -0.19947962 0.2663098 -0.10729623 0.17192821
berlin -0.40507227 -0.39420152 0.14074929 -0.58664995 -0.73839474 0.34335032 0.9238444 0.7856054 0.043212824 -0.01598616 -0.407903 -0.4562099 0.8241453 -0.6272619 0.49131635
kill -0.43492314 -0.12747288 0.60770446 0.6628852 -0.61619765 -0.11884855 0.9427614 0.04686126 0.04630415 0.91916996 0.43936563 0.7929681 0.42280346 0.6432204 0.18413019
rg 0.22226001 0.66703457 0.0037352145 -1.3272493 -0.6411497 1.3691614 2.0990148 1.5964768 -1.061001 0.2244158 0.3436846 -1.2144156 -0.20300335 0.14543371 1.9220588
brothers -0.54143494 0.15396383 0.9821864 -0.6153389 -0.187833 -0.08351102 0.5949504 -0.38416153 -1.5638415 0.09937042 -0.07061453 -0.17763281 1.412092 -0.27158344 0.5604783
transport -0.46886742 -0.20027788 0.6016778 -0.53074753 -0.9623893 -0.071405 0.47261006 0.45976505 -0.29343244 0.43773776 -0.27823845 -0.8062139 0.8510844 0.6668547 0.49705848
papers 0.45866388 -0.77920836 0.47252625 -0.25218353 -0.68812233 0.94477004 1.0032109 -0.09641527 -0.18186477 0.4701515 0.83705163 0.14502099 0.97171533 -0.23669858 0.7585904
second 0.27338597 -0.40481314 0.528103 0.22460245 -0.8166545 -0.54213643 0.6488996 0.04578452 -0.76743436 -0.33424547 -0.36852336 -0.39577964 0.48642018 -0.55525446 0.5239573
guess 0.33006543 0.16185318 0.4845703 0.105124705 -0.62040055 0.048802644 0.59430796 -0.23634607 -0.41594395 0.10367828 -0.5066248 0.34203008 0.4182492 -0.097268 0.28494897
lost -0.10866029 -0.39853916 0.5778368 0.6725545 -0.34715548 -0.010663748 0.48996416 -0.22179678 -1.2493199 -0.3359453 -0.0482081 0.6111312 1.3138956 0.13123636 -0.03296412
collectionsushmmorg 1.0208962 0.6989835 0.0037177734 -1.2438334 -0.2102156 1.6516868 1.780659 1.0664098 -1.3373832 0.57909447 -0.14152004 -0.36930174 -0.32861117 1.036061 2.1604881
walking -0.1886516 -0.22854275 0.7226278 0.4922486 -0.075406566 -0.21250516 0.36217254 -0.061121337 -0.655718 0.96630603 -1.4240179 -0.07448901 0.5953281 0.33633864 0.33078265
referenceushmmorg 1.9416796 1.4551181 0.5478435 -1.6340373 -0.54533994 1.6467723 2.593291 2.1423514 -1.6596533 1.174877 -0.8241651 -0.18533315 0.19187306 1.7147647 3.5288227
source 1.6741573 1.1723381 -0.5391105 0.7874268 -2.2793422 -0.36471218 1.1348767 2.361953 -1.7034581 0.80642134 1.2675905 1.2387359 -0.24746187 0.4090474 0.58611774
need 0.40529156 -0.23019223 0.85061544 -0.43136185 -0.73119044 0.1847718 0.28878736 0.016791508 -0.049024194 0.8112741 0.55237657 1.0258723 0.2826583 0.34077486 0.46610078
primary 1.8357103 1.322617 -0.25705367 0.24146661 -2.5241857 -0.60056067 0.88411623 2.7271929 -1.2828355 0.75019586 1.0319715 0.79674965 0.00086341216 -0.39378554 0.94054836
hand -0.27962652 -0.6787563 0.8749652 0.8790975 0.21515903 0.16870576 0.17109586 0.56471807 -0.67894095 0.28699458 -0.17125891 0.7869098 0.5381891 -0.0856339 0.35927925
send -0.41131043 -0.6299138 0.53507197 -0.41010857 -1.0440466 0.3836914 0.50572073 -0.12590058 -0.37688053 0.86782986 0.8770311 0.13857342 0.79082984 0.2251189 0.6350117
transcript 3.0173745 -0.001950998 -0.0886478 0.7446734 -1.8307495 -0.73328364 1.7303725 3.6927633 -1.1171541 0.65645355 0.74401754 0.8651649 0.1486673 -0.17394318 1.3524162
might 0.49350706 0.1010913 0.81270313 0.21022795 -0.7809051 0.12262541 0.7209876 -0.049818393 -0.03391746 -0.024668599 0.10326833 0.54515475 0.5291274 0.4803171 0.2374562
against -0.01895691 0.43327573 0.55849135 1.3341056 -0.32916677 0.32649398 0.47535166 0.3940407 0.21095736 0.32300726 -0.2658657 0.42840073 0.62689495 -0.0531114 0.6483531
spelling 0.82414436 2.211536 -0.49451247 0.32012233 -2.3596783 -0.2699538 1.3849095 2.0047765 -2.0545247 1.4400496 1.1244544 0.9792053 -0.5167438 0.21476965 1.4676931
seen 0.3912228 0.06654729 0.13764867 0.6911846 -0.15558326 -0.20836692 0.6124851 -0.46694323 -1.0869715 0.16091187 -0.47866923 -0.075900294 0.60660356 0.68299514 1.0239875
dann -1.3684081 0.20118125 -0.72895926 -0.89483637 -0.60066557 -0.3625199 2.1675878 3.0680852 -1.4728377 0.33759135 -1.3023075 0.7031257 0.52766335 0.05156345 1.7952445
having 0.64801615 7.622493e-05 0.58041376 0.62942266 -0.47686392 0.18037726 0.045261573 -0.12125793 -0.5922717 -0.10507013 -0.4168803 0.50754684 0.6053106 0.06685981 0.57478994
question 0.7321513 -0.13181259 0.5607328 -0.031736486 -0.47753468 -0.18482834 1.1591077 -0.33312607 -0.0672244 -0.16241741 -0.011140356 0.36490384 0.38728678 0.57762563 0.9926227
read 0.90666384 -0.009202638 0.08618132 0.40821752 -0.9284322 0.19628003 1.0308979 -0.40673962 -0.3632676 0.17776091 0.1062459 0.51218975 -0.22268231 -0.7224846 1.0851554
accuracy 0.6290756 2.620843 -0.02722945 0.16107756 -2.4980721 0.6443802 1.5596001 2.3963122 -2.1441817 1.1568598 1.5258704 1.3925234 -1.0095767 0.6917523 1.8948487
http 0.037681855 0.46802193 -0.07552792 -0.4354959 -0.4362375 0.90408915 1.3402582 0.94491947 -1.1654975 0.27546263 0.21731137 0.27144665 -0.38540095 0.4814806 0.9328418
week 0.45889708 -0.26540208 0.5303262 -0.6177551 -1.6784804 -0.08112922 0.1416163 -0.1905404 -0.557771 0.19963832 -0.7276367 -0.16520144 0.055679195 -0.03090773 0.55264723
standing -0.073094554 -0.16098654 1.1005614 0.6079781 -0.2957888 -0.7367598 0.31371853 0.010783695 -0.6182243 1.0351211 -0.7247306 -0.2938298 0.058968145 0.11677517 0.76135045
werent 0.13639097 0.49926567 0.4032287 0.15627238 -0.661128 0.28308392 -0.20598105 0.07226392 0.24298921 0.8503118 -0.72204757 0.5237603 1.123742 0.42276442 0.41214335
today 0.5360698 0.21574572 0.5544387 -0.19803526 -0.5442595 -0.5111135 1.1137007 -0.08161045 -0.28300592 0.19235337 -0.024419917 0.6388864 -0.035753924 -0.027841987 0.19794296
ones -0.1462704 0.23880413 1.0843749 0.45863295 -0.47373348 -0.12271816 -0.083531104 0.13031745 -0.4689696 0.042783935 -0.057627052 0.34130147 1.24475 0.28168732 0.30921695
reason 0.20434812 0.017098766 0.4538085 0.06307163 -0.9086122 -0.096324734 0.4388116 0.013521533 0.057602342 0.35861662 0.0058492064 0.47595668 0.6879387 0.43234694 0.28269657
verbatim 3.4996014 -0.18162355 -0.103280306 0.5564251 -1.4646395 -0.7180087 1.9373527 3.8539646 -0.95727956 0.9069797 0.4263285 0.8023334 0.4781742 -0.42186815 0.9725018
business 0.43804663 -0.36927703 0.6135537 -0.64642787 -0.20486617 0.5867575 0.09628091 0.19963086 -0.32692924 0.3054657 -0.3307605 0.7620655 1.4269973 -0.5850849 0.10629958
couple -0.10761087 -0.027948663 0.8926279 0.036227632 -1.0525502 0.12910372 0.030114638 -0.2515865 -1.078842 0.46080092 -0.14439046 -0.30391824 0.20304343 -0.25687188 0.5956817
happening 0.7468902 0.6669258 0.34264472 0.3524103 -0.46684724 -0.09241307 1.3959395 -0.48223677 -0.15501216 0.25739542 -0.5579131 0.21164973 0.80602604 0.4796486 0.2181014
apartment 0.69179595 -0.54816663 0.85359585 -0.72929984 -0.28177392 -0.1014751 0.15559512 0.2602311 -1.146628 0.80271435 -0.44782555 -0.232195 1.1654226 -0.5321886 -0.13491894
hours 0.052655794 0.06706554 1.2478191 -0.38966227 -1.352341 -0.26009953 0.27448574 -0.47716665 -0.6070752 0.5755099 -1.0155385 -0.076647095 -0.5390644 0.30409846 0.869654
experience 0.9136962 0.39025202 0.7486055 0.5336437 -0.29988623 0.032179695 0.6938163 -0.1184745 -0.47077638 -0.5889128 -0.5321224 0.38312146 0.72615075 0.34977633 0.56552845
moment 0.47712377 -0.6456869 0.51446 0.4433775 -0.5975852 -0.67016786 0.94358736 0.20256226 -0.003567749 -0.31010404 -0.76498497 0.14276488 0.37376577 0.6167117 0.42075545
half 0.14135817 -0.20486334 1.6425823 -0.33360368 -1.1208426 -0.4467858 0.19042957 0.32377753 -0.84393024 -0.0754828 -0.38014752 -0.13550507 -0.09726004 -0.12264991 0.11719982
french -0.45970374 0.29188818 0.4882618 0.60864913 -1.6439124 0.5793523 0.33769605 0.40172774 0.14927837 0.63315195 0.45481235 0.3310659 0.1429723 -1.1001534 0.5624007
march -0.2935817 -0.1481084 1.02582 -0.004164664 -1.3027887 -0.06834218 0.67390573 0.013879141 -0.16494632 0.09425028 -1.228731 -0.5479476 0.0012763342 0.27270922 0.49224386
happy 0.508785 0.031285208 0.3511384 -0.5457012 -0.58311886 -0.46414405 0.70379055 -0.28611493 -0.50467837 -0.042454254 -0.79607844 1.2167547 0.9602245 -0.57423776 -0.3274149
hope 0.7043425 0.26233193 0.12338756 -0.25745 -0.8916641 -0.13787057 1.3840004 -0.49407536 -0.3842953 0.08188924 -0.020357165 0.93230945 0.50922084 0.5353616 -0.063221686
ran -0.4859965 -0.66186315 -0.13026698 0.5099132 -0.4107519 -0.25118408 0.43461072 0.17627881 -0.46151713 1.3082817 -0.47922558 0.04403181 1.2273127 -0.33905092 0.14796647
high -0.26061186 0.2760198 0.49836212 0.17393172 -0.78582543 -0.06772426 -0.3582272 0.13607071 -0.5036729 -0.018696783 -1.3446939 0.43206295 0.39996743 -0.9176094 0.79733616
yet 0.24858949 0.12610835 0.5755136 0.08165578 -0.5916521 -0.21448529 0.45138034 0.034922425 0.15912941 0.04030558 -0.4488067 0.4260813 1.082422 0.049917597 0.2298222
saying 0.29683837 0.06165609 0.15854748 0.41497007 -0.18777397 -0.29914683 1.0096424 -0.3148547 -0.21793537 0.3040068 -0.24371745 0.5095655 0.44987062 0.018991934 0.74463654
taking -0.04858887 -0.05889237 0.93961114 0.14196889 -0.3685699 0.14652325 0.39657232 -0.011076902 -0.20794635 1.1355448 -0.14415398 0.11985298 0.80927557 0.4345709 0.13995706
barracks 0.12146978 0.013879944 1.2296135 0.1077464 -1.0198689 -0.11098507 -0.15957855 0.4010391 -0.7886062 1.0464597 -0.3575497 -0.5913357 0.16506067 0.54805756 0.27805835
great 0.76293504 0.22475699 0.6134116 0.41137242 -0.6581857 0.26482207 0.5863074 0.12413237 -0.72590995 -0.32927573 0.18112727 0.6596688 0.39162585 -0.5849143 -0.008123494
piece 0.8144204 -0.898584 0.70308846 0.19454144 -0.918213 0.07785544 0.07536416 0.2608485 -1.6047025 0.5591401 0.098141596 0.8947908 -0.6221156 0.30861682 0.11744478
doctor -0.09593305 -0.79629266 0.21396424 0.17499934 -1.4745983 -0.80150145 -0.24453053 0.29507983 -0.26437992 0.15932818 0.71625036 0.3318673 0.628767 -0.18624257 1.2381905
gestapo 0.08314481 -0.51604325 0.5081336 0.1226472 -0.6547008 -0.17923498 0.40210477 0.41798836 -0.014777232 1.1162697 0.28441516 -0.50797004 0.42409977 -0.34167412 1.0064731
arrived -0.036044177 -0.66596395 0.35544232 -0.29833564 -1.2120277 -0.16288795 0.6598643 0.21267891 -0.56624806 0.1621619 -0.6719279 -0.8933924 0.55723697 0.17674609 0.3808443
france -0.67547834 -0.59563684 0.7833213 -0.18037274 -1.0129106 0.92998594 1.1375527 0.40981355 -0.017336136 0.119251326 0.1480226 0.112060964 1.0293055 -0.57131535 -0.17619884
village 0.7549408 0.012110886 0.72914433 -0.7741473 -0.4145623 -0.429043 0.8610835 0.23159562 -0.35198435 1.0876497 -0.3042304 -0.12186423 0.704209 -0.5272707 -0.28516868
means 0.059821878 -0.07804971 0.5430064 0.044516116 -0.8661175 -0.2209595 0.22404264 0.8455671 0.16195475 0.5197794 0.27119595 0.36324897 -0.059503734 -0.032336514 0.42146477
running -0.31290355 -0.059123635 0.43818256 0.51043797 -0.37217855 -0.21335484 0.53224283 -0.080972895 -0.35900402 1.4283401 -0.6877776 0.26509082 0.78005165 -0.013992895 -0.10093154
english -0.37996584 0.23599884 0.17500955 0.23293906 -1.8811649 -0.095034815 0.54450375 -0.009299589 0.094983354 0.19497462 0.17615725 0.69291097 -0.22953606 -1.0639613 0.66764235
god -0.25111145 0.20872132 -0.36470544 0.28748712 -0.5821576 -0.74987894 1.2971754 -0.12928557 -0.24199364 0.50938636 0.31881547 1.3573546 0.5152542 -0.20236467 0.10132075
either -0.0023544964 -0.1622137 0.38079745 0.15830503 -0.6994204 0.3259068 0.4124889 -0.029763235 -0.007825776 0.36226463 -0.06162406 0.35514215 0.57712466 0.15390058 0.6632526
important 1.2927568 0.43962118 0.60233927 0.05906679 -0.8329404 0.21467645 0.549758 0.13682853 -0.45729718 -0.31944397 -0.06565309 0.7853557 0.27207947 0.15222003 0.085640505
exactly 0.53991956 0.1630927 0.6517247 -0.2783565 -0.7233313 -0.6196721 0.7079342 0.06572454 -0.05304033 0.15359265 -0.2686638 -0.09846827 0.25782678 0.21184216 0.63350093
guy 0.07840088 -0.6829835 1.0442003 0.555166 -0.43783444 -0.73826283 0.2366146 0.34652048 -0.4882534 0.8990885 0.2777045 0.30791795 -0.19982441 -0.7541769 0.7625837
near 0.03589785 -0.5430992 0.6946012 -0.43805084 -0.70587766 -0.28246236 0.9834153 0.9703342 -0.28844106 0.93482524 -0.61481154 -0.82710695 0.767501 -0.2939559 -0.56541586
station 0.43798414 -1.0291077 1.0646948 -0.31124797 -0.74400926 0.21208291 0.55709153 0.42707905 0.148556 0.98208696 -0.9311068 -0.9404963 0.40512902 0.124027774 0.7295676
death 0.00268662 -0.12052086 0.5172431 0.6678605 -0.5417532 -0.31819713 0.45752 0.09473964 -0.65461457 0.005901949 -0.18685895 0.17036878 0.8092075 1.2358043 0.2775068
prisoners -0.21243012 0.7981296 1.0701764 0.863715 -1.3192141 0.37061825 -0.22579525 0.6984959 -0.31342295 0.687138 0.32143062 -0.3725395 0.27539757 0.307641 0.53018355
boy -0.034994084 -0.04934837 0.86381185 -0.028111182 -0.068822786 -0.78645784 0.094115146 0.15502194 -0.63102144 0.16357814 -0.028194884 0.55469257 0.8122725 -1.0171057 0.8623044
order 0.2325681 -0.66886115 0.8148237 0.043918 -0.7312231 0.8321449 0.34535646 0.33891577 -0.039175447 0.61709803 0.292194 0.445916 0.15277898 0.28337544 0.49633056
ive 0.64127105 0.26885667 0.044105772 0.47496948 -0.71033347 -0.08437006 0.8431684 -0.5533005 -0.86258054 -0.5151655 -0.052274596 0.27037987 0.6836143 0.13358513 0.9227568
caught -0.41164315 -0.2642367 0.44022515 0.603756 -0.88867116 0.09267496 0.2805477 -0.13597526 -0.36404765 0.8501299 0.029245734 -0.0016570467 1.1028167 0.23752186 0.28867954
sisters -0.5549961 0.17952421 0.8562247 -0.91339487 -0.09401096 -0.208867 0.69570065 -0.5299584 -1.6111565 0.08765651 -0.288321 0.18213119 1.3828499 -0.14302553 0.50433326
picked -0.54884875 -0.13815197 0.5568138 0.44039506 -1.0974828 -0.32928476 0.12129417 -0.078815825 -0.5825125 1.0712334 0.042121686 0.02069006 0.33543566 -0.38488302 0.382149
picture 0.7794237 -0.53902173 1.2022105 0.1831711 0.20833662 -0.42488763 0.98190683 0.08250919 -1.2613121 -0.3414412 0.026414473 -0.078426324 0.19761592 -0.19472295 0.67295927
sitting 0.28831464 -0.34283742 0.66312295 0.03123721 -0.33595753 -0.6582038 0.61505806 -0.19072309 -0.80808276 0.9362206 -0.78155464 0.016413743 -0.18367545 -0.21116431 0.4463142
human 1.0674591 0.60540783 1.0439947 0.8316555 -0.37441024 -0.2462966 0.3262457 0.71254134 -0.2675436 0.03917943 -0.11871558 1.1203647 0.28721032 0.8944159 -0.13659558
supposed 0.14036474 -0.48022905 0.5609862 -0.2769962 -0.8208135 0.2900799 0.57760423 0.2465376 0.06370712 0.6592438 0.050506186 0.104641795 0.38812432 0.0585216 0.29097745
open 0.70710045 -0.8207374 0.79159427 0.26552087 -0.09061317 0.0023708236 0.5071784 0.14188299 -0.45278862 1.0500002 -0.9324157 -0.085962296 0.5312131 0.52680093 0.18175444
least 0.21823439 0.2885861 0.7092742 -0.16134125 -0.81812614 0.031956755 0.18652971 -0.06678343 -0.30995625 0.020527039 -0.35367712 0.5128448 0.52700496 0.2035039 0.3040768
warsaw 0.32745087 0.44687095 0.108995624 -0.15824811 -0.73578125 0.049515195 1.0913512 0.03212307 -0.49298346 0.5766745 -0.33312154 -0.5722722 1.3008865 -0.44733265 -0.15683539
religious 0.7771768 0.8783045 0.3193025 -0.27382746 -0.35624853 -0.094198324 0.07063811 0.07374073 -0.23710148 0.06828686 -0.49276805 1.2258646 0.9829904 -1.0343379 0.5966698
less 0.17118533 0.604498 1.3359798 -0.38670316 -0.5218374 0.2499279 0.10699019 0.34032592 -0.056526896 0.06363965 -0.5942842 0.6478596 0.7769611 0.30842105 -0.09250397
spoke -0.27415314 0.6694254 0.37380677 0.59262264 -1.367025 -0.67719615 0.4830446 -0.28460425 0.21164885 0.5204272 0.22583616 0.5396356 0.4864202 -1.0586144 0.808842
special 0.8186617 0.24389209 0.9207156 -0.2387309 -0.72853315 0.36638683 -0.25166175 0.55001336 -0.280675 0.4786565 0.0914297 0.041286822 0.25650007 0.10729369 0.6351748
line -0.18978366 -0.4736818 0.88181657 0.18270725 -0.8613527 0.018361906 0.5320614 0.090775825 -0.3944789 1.1038239 -0.45723653 -0.06827616 -0.1521801 0.06362738 0.22828579
gone 0.18164833 -0.11526231 0.59540665 0.008391973 -0.51704824 0.040288147 0.64846706 -0.44284016 -0.80637026 0.14270414 -0.0007017309 0.1968358 0.86148506 -0.060704157 0.28558013
mine 0.43984985 -0.45020875 0.19434765 -0.20988826 -0.46266133 -0.45098236 0.12448625 -0.050115477 -1.2322253 0.29267195 0.3473269 -0.054762527 1.175519 -0.393231 0.7585785
hit -0.70017123 -0.61398745 0.7937321 1.3816755 -0.46292314 -0.36732072 0.2876436 -0.13404244 -0.52292985 0.7810492 -0.64321464 1.0706029 0.37371942 0.17432354 0.3062434
ne -0.88077265 0.22744173 -0.9553787 -0.4976239 -0.44680682 -0.14777952 1.6622758 2.8363507 -1.0000234 0.21645322 -1.007117 1.1363211 0.7384111 0.58767956 1.5301907
early 0.42620757 0.11023803 0.30514872 -0.11602771 -0.99983746 0.1290901 0.7695221 -0.4399972 -0.44345826 -0.21168475 -1.3225338 0.08503374 0.2319332 -0.6068343 0.5527358
given 0.5636145 -0.10735286 0.75566614 0.058458745 -1.000145 0.7869161 -0.011730958 0.22112517 -0.7651759 0.18551674 0.30357903 0.2714975 -0.02200737 -0.0017062188 0.47345984
black 0.4942137 -0.6734727 1.0960528 1.09672 -0.30848515 0.22289753 -0.14229201 0.5993856 -0.71316975 0.45895556 -0.34847763 0.52935636 -0.058372103 -0.84236395 0.5256473
forget 0.49353895 -0.4648332 0.6752563 -0.3280267 -0.49580595 -0.49605745 0.8659648 -0.37432307 -0.3715839 -0.20880705 -0.5544209 0.66510576 0.16024466 0.42486227 0.8228035
sind -0.85695624 0.26153564 -0.87163043 -0.8423442 -0.15768267 -0.55714273 1.9583299 3.2099488 -1.6875011 0.73202467 -1.1706202 0.49663273 1.0304743 0.55302334 1.6127135
yourself 0.55261403 0.025949482 1.0249648 -0.15748227 -0.23611361 0.1419919 0.7475895 -0.033932313 -0.11094781 0.40830818 -0.24287832 1.2779025 -0.016664127 0.7622528 0.23856814
son -0.38461965 -0.15431851 0.40213105 -0.45462525 -0.3774081 -0.7703597 0.98325 -0.34486184 -1.0893744 -0.1789662 0.36990628 0.48562133 1.0211895 -0.88575876 0.7031344
both -0.15491277 0.06103688 0.7127757 0.17970128 0.06536178 0.12426793 0.37009445 -0.0042243116 -0.84097266 0.08477652 -0.48518428 0.3002859 1.0325706 -0.45703706 0.33760557
america -0.2700543 -0.24673054 0.29925853 -0.41298124 -1.2500519 0.60371286 1.3979945 -0.37822405 -0.34705344 -0.28578472 0.2910126 0.55789095 0.7543367 -0.2722773 0.08294347
boys -0.52296126 1.2097265 1.0109855 -0.14038971 -0.35434565 -0.22735636 -0.06624781 -0.24029005 -0.68991625 1.0110514 -0.24997976 0.11429405 0.66919583 -0.76686734 1.0523218
store 0.63673186 -0.7402558 0.45810148 -0.59018266 0.15449512 0.31494096 0.08677596 0.44831657 -0.43787152 1.4262464 -0.4095923 0.53553265 0.9420076 -0.9516779 0.3888166
th 0.12970722 -0.4478706 0.58785915 -0.13311511 -1.457757 -0.15850556 1.3999192 0.38628688 -0.4566378 -0.68770385 -0.98261577 -0.6521817 -0.077050924 -0.44927734 0.19089285
cousin -0.06061179 -0.64720106 -0.12514018 -0.4569282 -0.28137836 -0.73532474 0.56161106 0.11554392 -1.388997 0.33482596 0.41489938 -0.30772978 1.2476953 -0.25116113 0.86955893
community 0.83522755 0.82331556 0.44842923 -0.373907 -0.46185294 0.6879336 0.52479047 0.25426024 0.00013084373 0.47416648 0.12569894 0.310306 1.1646475 -0.7530804 0.4361191
free -0.06933321 -0.27543703 0.9300367 0.040044997 -1.3234388 0.218732 0.80557984 0.32749072 0.4432228 0.12030513 0.028198188 0.3903608 0.34548986 -0.17233929 -0.018127963
gas 0.016728574 -0.5265749 0.26993808 0.19200431 -0.47915927 -0.59354603 0.86914074 0.89117575 -0.5067391 0.78871715 -0.17606667 -0.61284393 1.0954386 1.8067601 0.17725407
middle 0.38726196 0.03312134 0.85054034 -0.36607447 -0.5757641 -0.07926314 0.552399 0.19532982 -0.5740789 0.7491452 -1.4571407 -0.0863652 -0.059232567 -0.8919663 -0.10868863
shoes -0.67107654 -0.96544033 1.5337843 -0.12966895 -0.33876458 0.47040758 -0.34050655 0.3659139 -1.2478583 0.69985354 -0.77392876 1.2129935 0.18784252 0.14776538 0.09023123
telling 0.18279731 0.4211288 0.75361186 0.12437616 -0.3240278 -0.3083559 1.5656755 -0.5654172 -0.56805855 0.5022554 0.24773014 0.25674295 0.33625808 -0.30130938 0.2838784
doesnt 0.921377 -0.4547111 0.9595576 0.035487264 -0.4786237 -0.47702906 0.7311613 0.23852527 0.17562075 0.048984557 0.11105761 0.9538373 0.35741925 0.22990344 0.26532206
rest 0.2203439 -0.12107277 0.69336915 -0.04321443 -0.4906958 0.01949644 0.49821687 -0.17181735 -0.59051514 0.43654487 -0.13058403 0.19014701 0.7930412 0.34246603 0.090630926
daughter -0.12251923 -0.22696953 0.38307983 -0.48646978 -0.16528529 -0.9924612 0.6433545 -0.03744197 -1.0710546 0.043615863 0.1738408 0.47021738 1.0099462 -0.8204333 0.6376182
liberated -0.48447743 -0.25839272 0.47541317 0.5422179 -1.8456982 -0.30575722 0.85643363 -0.06617425 -0.28101736 -0.15597352 -0.37219787 -0.08582007 0.5366518 0.04453878 -0.05233641
describe 1.4589767 0.049096778 0.7870549 -0.289248 -0.06504544 -0.4583617 0.9214498 0.217267 -0.4127933 -0.035411756 -0.65042925 0.2925876 0.15418355 0.6410028 0.33107284
sudden 0.2705417 -0.108684465 0.68034744 0.7199909 -0.4922825 -0.2667668 0.8104387 -0.3808717 -0.55846405 0.6578586 -0.9363604 -0.048769362 0.19631326 -0.5714959 0.25233293
helped 0.16919658 -0.028587611 0.55456924 0.26011732 -0.8353477 0.29940662 -0.22362754 -0.18463182 -0.65070504 0.71558225 0.36834085 0.69624525 0.8266229 -0.15264529 0.44478944
europe 0.11340528 0.5459588 0.3206413 -0.28748426 -0.82275146 0.57995117 1.0178677 0.13651654 -0.4810641 0.22150607 -0.24018885 0.2941456 0.5099416 -0.6346406 -0.43469876
labor 0.053544365 -0.06000132 1.1272248 -0.09675136 -1.3926347 0.13330187 -0.17551507 0.44594136 0.22431014 0.69233614 0.09094018 -0.44216388 1.108498 0.5960071 0.41682422
nazi 0.10435302 0.07678134 0.5379427 0.9540021 -0.16645758 0.2910906 0.4304316 0.67840976 0.37589282 -0.20194457 -0.37120378 0.10673618 0.7719135 -0.3859345 1.3785626
building 0.89529216 -0.36892435 0.95159113 -0.03722555 -0.37579903 -0.058473065 0.19636871 0.78517973 -0.46802238 1.1814787 -0.49787697 -0.7091595 0.6008902 -0.29402465 0.050055493
cold -0.09744324 -0.5792181 0.55988896 0.071224034 -1.2971889 -0.52989864 -0.04319833 0.42870292 -0.76564455 0.22255766 -1.6845554 0.75371605 -0.049818978 0.26195508 -0.48888072
though 0.3075243 0.22508745 0.57690287 0.18115403 -0.8087324 -0.2624245 0.35755223 -0.14384334 -0.09087744 -0.039579134 -0.40854815 0.6853823 0.792111 0.14611161 0.24871792
stand -0.39911237 -0.022324277 0.8495792 0.090828694 -0.55183333 -0.7311054 0.37910146 0.22387108 0.08818065 0.5174081 -1.016743 0.4397602 -0.3490592 0.4215277 0.7826997
hungarian -0.5199073 0.113520265 1.0402552 0.6989621 -1.1587837 -0.18857971 0.29199424 0.2088862 0.38647574 0.93210524 -0.10261308 0.22738257 0.5752536 -1.1748277 0.31188002
places 0.58627963 0.3875223 0.5342081 -0.3255426 -0.60543776 0.80134505 0.58008146 -0.036203723 -0.4954853 1.194987 0.0023317714 -0.23491563 0.8430547 -0.052422084 0.04263178
buy 0.5295784 -0.9246583 0.524241 -0.668927 -0.5588709 1.1951544 -0.180172 -0.10491798 -0.5153031 1.1108698 -0.120366395 1.4551853 0.5831225 -0.29814482 0.6315509
change 0.09591443 0.13490333 1.2978965 -0.020430788 -0.50362396 0.603169 1.029101 -0.012761568 -0.14789286 -0.4001109 -0.5297965 0.9594294 -0.15079066 0.071237005 0.053402387
lucky -0.2522178 -0.12351406 0.9990006 0.08057415 -1.2213433 -0.4125675 0.018137489 -0.17572851 -0.5782629 0.6015868 0.11542049 0.46830913 0.8006624 0.581459 -0.06818619
s -0.16264504 0.06759286 0.61547184 -0.019574234 -0.68992496 -0.04509936 0.58189017 -0.22193263 -0.33640623 -0.13651925 -0.7012723 0.13674128 0.8318292 -0.6684721 0.4249073
idea 0.7882584 -0.12971029 0.35454544 0.35554656 -0.6707604 -0.047175925 0.62451875 -0.06338102 0.0036146424 -0.028736267 -0.010266629 0.40537325 0.6413856 0.41417688 0.65578985
perhaps 0.6334677 0.37153623 0.9742194 0.06080903 -0.44230303 -0.095315136 0.6551753 0.019470388 -0.21230213 -0.28364608 -0.08300227 0.09789445 0.6553888 0.2359733 0.626541
others 0.09677408 0.5320221 0.7923369 0.35809046 -0.23923339 0.28514674 0.43880016 -0.2524308 -0.8382483 0.48436502 0.17728287 0.05153475 0.6063865 0.23808222 0.61896855
ah 0.43632704 0.18781546 1.071168 -0.22037113 -0.35156077 0.046060205 0.7133291 0.23156616 -0.16337472 0.05457194 -0.20570365 0.017839953 0.29059386 -0.30079943 0.38980898
age -0.08664666 0.531501 1.0801942 -0.26821968 -0.36307555 -0.41070607 0.19929187 -0.23723967 -0.35011086 -0.18699406 -0.64737314 0.34671968 0.97004825 -0.24410348 0.8604386
comes 0.37844983 -0.066082574 0.5182125 0.1360745 -0.5360218 -0.7196267 1.1307415 0.010619508 -0.24196257 0.32408488 -0.105556846 0.36974087 0.029255617 -0.24757501 0.13323756
thinking 0.45379105 0.27505106 0.7766013 0.4395681 -0.42881233 -0.3412885 0.9829195 -0.37639844 -0.27168944 0.23917481 -0.14462066 0.74208075 0.49430144 0.4176081 0.26395714
needed -0.033978235 -0.31855005 0.65044296 -0.14164892 -1.2379103 0.5537343 -0.47215742 0.3120088 0.01549279 0.8612974 0.22740239 0.7205377 0.7425168 0.2925036 0.38291
broke -0.48641968 -0.6680434 -0.0086919395 0.7202985 -1.1807357 0.053463414 0.50897473 0.17556001 -0.66218543 0.008658298 -1.22973 0.325475 1.0187113 -0.43975323 -0.52119577
